tree
version=v4
num_class=1
num_tree_per_iteration=1
label_index=0
max_feature_idx=4
objective=regression
feature_names=sku aggregateRating.ratingValue kategori brandname_encode Month
feature_infos=[14.725852832795903:20.474424974876612] [2:5] [11.562543857492422:11.605176424674335] [0.0011682242990654205:0.10046728971962617] none
tree_sizes=1391 1650 1219 1301 1296 1398 1316 1488 1481 1572 1405 1586 1496 1578 1408 1336 1485 1499 1423 1417 1328 1579 1414 1502 1339 1327 1333 1247 1168 1254 1250 743 1250 742 1419 1162 830 1093 824 1079 1255 1172 1339 1173 1002 1173 1342 1160 1003 1415 1178 1089 1162 1340 1335 827 999 1095 1087 1167 1174 1003 1091 1167 1168 1088 1093 1008 1161 1162 1426 1177 1519 1255 830 1527 1246 1185 1173 1169 1603 1174 999 829 1258 1593 1172 1184 1175 1352 1082 1091 926 1429 1080 1091 1181 1089 1261 832 921 1088 1015 1516 1355 831 1006 1520 833 1176 1174 920 1003 1088 835 923 1442 1010 749 1003 1177 834 1542 1355 1088 926 1606 921 1093 1361 840 1271 918 922 1090 1094 1005 1088 837 1009 1093 1011 749 1003 1012 1014 1355 1094 1092 1100 1185 1179 1100 1361 1103 837 1273 1178 1271 1349 1099 923 1011 1438 1265 1623 1263 833 838 1265 1011 1013 1007 922 1094 924 1182 1533 1013 1014 1007 1189 838 1179 1009 926 1096 1089 920 831 1086 1096 838 1006 1094 1008 1086 1099 1012 1100 1102 1095 1268 922 1180 1100 1015 919 1091 1262 1098 747 1011 1004 1185 1012 1097 832 1008 1015 1096 1012 920 1189 1350 926 1014 1190 1012 1180 923 1008 1102 1191 920 1086 1098 1020 924 1089 1101 1263 1012 1182 925 1019 1362 1703 1271 1009 922 924 1361 1011 1100 1532 1275 1099 1106 1011 925 1092 1366 1441 1186 1350 1352 1357 1269 1268 1009 750 1271 750 1006 1435 1703 1184 1014 1352 1527 1271 1192 1095 1370 1015 842 1185 935 839 928 840 1006 1192 1097 921 1365 1010 1189 1017 1189 1017 1008 1182 1006 1008 919 930 1275 1279 1363 927 933 1188 1279 922 1103 1006 1093 1621 1184 1615 1094 1010 1103 1095 1283 1105 1008 1015 1371 928 933 1193 1011 1023 1617 1189 1279 1011 1706 1017 1011 843 1100 1019 1012 1540 1095 1274 1020 750 925 838 1018 755 1097 1097 1094 928 1099 1358 1104 1014 1016 1106 1014 924 1183 1102 842 931 930 1278 1192 843 1188 840 842 1798 928 927 1616 846 931 1195 1188 1014 929 1014 838 1011 840 1015 753 1019 1187 1100 1009 1783 1106 749 1018 1455 1367 1091 1370 842 838 1094 1275 1101 1020 1018 843 1015 1623 1287 928 1014 920 1191 840 1017 752 1019 929 1364 1102 1103 1192 839 1103 1102 1092 752 924 1193 927 1101 1098 1365 1192 1538 1447 1010 1357 839 1004 1014 925 1191 754 1017 1012 935 1099 1106 751 1015 846 753 845 1191 1011 1195 1095 1100 1102 841 1100 927 937 1278 1018 753 1191 1006 844 922 837 755 932 1099 1022 1104 843 840 754 1192 1014 1361 1101 1195 926 1533 924 1016 841 1022

Tree=0
num_leaves=16
num_cat=0
split_feature=2 0 0 3 2 3 0 0 3 1 3 3 1 0 0
split_gain=39.3124 3.8578 2.06243 1.96297 2.88041 3.06191 3.24441 2.59101 2.1478 1.89799 1.42303 1.12026 1.07477 0.758306 0.155805
threshold=11.58862388580256 19.02478910866196 20.39634373401373 0.05023364485981309 11.567307602211603 0.0064252336448598138 18.233634690610568 19.128542213384844 0.075934579439252345 4.6500000000000012 0.0064252336448598138 0.025700934579439255 4.5500000000000007 18.58863960147119 17.868575479900212
decision_type=2 2 2 2 2 2 2 2 2 2 2 2 2 2 2
left_child=2 10 3 4 7 6 -6 11 -5 -3 -2 -1 -9 -7 -12
right_child=1 9 -4 8 5 13 -8 12 -10 -11 14 -13 -14 -15 -16
leaf_value=5.619083542814904 5.7280615284103709 5.6625656399173465 5.6597753465451577 5.6771673064707242 5.6514366718044986 5.6410928215117009 5.6052883845639876 5.6192707469521901 5.6364921132695089 5.6959936411842387 5.7059009392430422 5.594588724007636 5.6467983887736892 5.6587362723450312 5.6943446890375133
leaf_weight=43 33 33 36 21 25 42 39 23 34 35 28 33 37 58 20
leaf_count=43 33 33 36 21 25 42 39 23 34 35 28 33 37 58 20
internal_value=5.65362 5.69733 5.63697 5.63466 5.63147 5.64039 5.62332 5.62071 5.65202 5.67977 5.71208 5.60845 5.63625 5.65133 5.70109
internal_weight=0 149 391 355 300 164 64 136 55 68 81 76 60 100 48
internal_count=540 149 391 355 300 164 64 136 55 68 81 76 60 100 48
is_linear=0
shrinkage=1


Tree=1
num_leaves=18
num_cat=0
split_feature=2 0 0 0 3 2 3 0 3 3 3 3 1 3 1 1 3
split_gain=31.843 3.24201 3.06215 1.69576 1.6719 2.31995 2.65816 1.97539 2.47439 1.94032 1.66604 1.05179 2.3844 2.12403 0.481187 0.458491 0.187147
threshold=11.58862388580256 17.934163883793847 17.465185751903643 20.348183068532961 0.0064252336448598138 11.567307602211603 0.05023364485981309 17.676798679288854 0.0017523364485981308 0.015771028037383179 0.0052570093457943931 0.0052570093457943931 4.6500000000000012 0.015771028037383179 4.6500000000000012 4.8500000000000005 0.021028037383177572
decision_type=2 2 2 2 2 2 2 2 2 2 2 2 2 2 2 2 2
left_child=3 2 -2 4 7 6 9 -1 -9 -6 -5 12 -3 -13 -10 16 -7
right_child=1 11 -4 10 5 15 -8 8 14 -11 -12 13 -14 -15 -16 -17 -18
leaf_value=-0.0082894666386502131 0.032174772286618296 0.017610491837628865 0.082029690899487057 0.023809545380728589 -0.015935667150486738 -0.00084460062492224908 0.00021670704138361746 -0.0083610353725297112 -0.03962173741310835 -0.046410262292871873 -0.014397414192557335 0.0029562509036622944 0.064719384057181223 0.042310669855214658 -0.059052297547459602 0.01102702371776104 -0.0096138099138185669
leaf_weight=35 22 22 28 21 39 45 36 21 26 45 25 32 21 24 25 20 53
leaf_count=35 22 22 28 21 39 45 36 21 26 45 25 32 21 24 25 20 53
internal_value=0 0.0393374 0.0600935 -0.0149905 -0.0173952 -0.0127275 -0.0225179 -0.0277774 -0.0372508 -0.0322613 0.00304489 0.0288545 0.0406172 0.0198224 -0.0491465 -0.00277117 -0.00558713
internal_weight=0 149 50 391 345 238 120 107 72 84 46 99 43 56 51 118 98
internal_count=540 149 50 391 345 238 120 107 72 84 46 99 43 56 51 118 98
is_linear=0
shrinkage=0.1


Tree=2
num_leaves=13
num_cat=0
split_feature=2 0 0 3 3 3 0 1 1 3 2 0
split_gain=25.7928 2.68703 1.60479 1.61727 1.5266 2.84368 2.38666 1.31971 1.30835 2.43703 1.06967 0.80437
threshold=11.58862388580256 19.02478910866196 15.745050442420752 0.05023364485981309 0.025700934579439255 0.014602803738317759 20.416220149679923 4.6500000000000012 4.6500000000000012 0.0087616822429906552 11.567307602211603 19.951639073572267
decision_type=2 2 2 2 2 2 2 2 2 2 2 2
left_child=2 8 -1 4 5 6 -4 -3 9 -2 -6 -7
right_child=1 7 3 -5 10 11 -8 -9 -10 -11 -12 -13
leaf_value=-0.033017533365637064 0.083966060392558578 0.0064000796145674867 -0.02023130332468295 0.0086960050173931665 -0.039003789914505822 0.00085881724953651428 0.014179451893205228 0.034274347371288712 0.027525651341547136 0.040840196707531029 -0.014616883702173428 0.025525267389602958
leaf_weight=38 20 33 163 36 35 39 23 35 23 38 37 20
leaf_count=38 20 33 163 36 35 39 23 35 23 38 37 20
internal_value=0 0.0354036 -0.0134914 -0.0113895 -0.0136705 -0.00990847 -0.0159762 0.0207471 0.0477079 0.0557112 -0.0264716 0.00922033
internal_weight=0 149 391 353 317 245 186 68 81 58 72 59
internal_count=540 149 391 353 317 245 186 68 81 58 72 59
is_linear=0
shrinkage=0.1


Tree=3
num_leaves=14
num_cat=0
split_feature=2 0 0 0 3 3 3 0 2 3 1 1 0
split_gain=20.8922 2.26139 2.34172 1.29988 1.30999 1.23655 2.30338 1.9332 0.866435 0.855237 1.95816 1.85059 0.65154
threshold=11.58862388580256 17.934163883793847 17.465185751903643 15.745050442420752 0.05023364485981309 0.025700934579439255 0.014602803738317759 20.416220149679923 11.567307602211603 0.0052570093457943931 4.5500000000000007 4.6500000000000012 19.951639073572267
decision_type=2 2 2 2 2 2 2 2 2 2 2 2 2
left_child=3 2 -2 -1 5 6 7 -5 -7 11 -11 -3 -8
right_child=1 9 -4 4 -6 8 12 -9 -10 10 -12 -13 -14
leaf_value=-0.029715780600121144 0.02478382665325295 0.01344657064288516 0.068381337003250206 -0.018208172816806045 0.0078264045386782135 -0.035103411259395735 0.00077293575383149667 0.012761506503042969 -0.01315519485289917 0.039104580488942921 0.00047905530248369492 0.054948559616293226 0.022972739990800621
leaf_weight=38 22 22 28 163 36 35 39 23 37 21 35 21 20
leaf_count=38 22 22 28 163 36 35 39 23 37 21 35 21 20
internal_value=0 0.0318633 0.0491984 -0.0121423 -0.0102505 -0.0123034 -0.00891763 -0.0143786 -0.0238245 0.0231082 0.0149636 0.033715 0.00829829
internal_weight=0 149 50 391 353 317 245 186 72 99 56 43 59
internal_count=540 149 50 391 353 317 245 186 72 99 56 43 59
is_linear=0
shrinkage=0.1


Tree=4
num_leaves=14
num_cat=0
split_feature=2 0 0 0 3 1 3 3 3 0 0 0 2
split_gain=16.9227 1.8944 1.16703 1.0529 1.06109 1.02061 1.87091 1.0016 1.86574 1.56589 0.735847 0.527747 0.39276
threshold=11.58862388580256 19.02478910866196 19.951639073572267 15.745050442420752 0.05023364485981309 4.6500000000000012 0.0087616822429906552 0.025700934579439255 0.014602803738317759 20.416220149679923 17.773311633838492 19.951639073572267 11.567307602211603
decision_type=2 2 2 2 2 2 2 2 2 2 2 2 2
left_child=3 5 -3 -1 7 6 -2 8 9 -5 -9 -10 -12
right_child=1 2 -4 4 -6 -7 -8 10 11 -11 12 -13 -14
leaf_value=-0.026744202534226998 0.070833431147038939 0.002475451969075948 0.028721772069628872 -0.016387355817264759 0.0070437640756507687 0.021182928728344649 0.033047154839885864 -0.037743020392954352 0.00069564173045830852 0.011485354958669 -0.025731656754699846 0.0206754656881094 -0.0080193637149228204
leaf_weight=38 20 32 36 163 36 23 38 20 39 23 21 20 31
leaf_count=38 20 32 36 163 36 23 38 20 39 23 21 20 31
internal_value=0 0.028677 0.0163706 -0.010928 -0.00922546 0.0390082 0.0460769 -0.0110731 -0.00802586 -0.0129407 -0.021442 0.00746846 -0.0151724
internal_weight=0 149 68 391 353 81 58 317 245 186 72 59 52
internal_count=540 149 68 391 353 81 58 317 245 186 72 59 52
is_linear=0
shrinkage=0.1


Tree=5
num_leaves=15
num_cat=0
split_feature=2 0 0 0 3 3 3 0 3 3 1 0 0 2
split_gain=13.7074 1.57497 1.79062 0.85285 0.859481 0.811298 1.51125 1.31421 0.689769 1.59229 1.57224 0.596036 0.427475 0.318136
threshold=11.58862388580256 17.934163883793847 17.465185751903643 15.745050442420752 0.05023364485981309 0.025700934579439255 0.014602803738317759 20.359253943456377 0.0052570093457943931 0.015771028037383179 4.6500000000000012 17.773311633838492 19.951639073572267 11.567307602211603
decision_type=2 2 2 2 2 2 2 2 2 2 2 2 2 2
left_child=3 2 -2 -1 5 6 7 -5 10 -10 -3 -7 -8 -13
right_child=1 8 -4 4 -6 11 12 -9 9 -11 -12 13 -14 -15
leaf_value=-0.024069782924887383 0.01892685819501904 0.0093463666567748238 0.057050633763096159 -0.015693552460250084 0.006339387841419214 -0.033968718238174919 0.00062607741699768947 0.0058128051566226149 -0.003414771123789251 0.030659314276029664 0.047599999854962036 -0.023158490444932664 0.018607918005436659 -0.0072174270967802698
leaf_weight=38 22 22 28 151 36 20 39 35 32 24 21 21 20 31
leaf_count=38 22 22 28 151 36 20 39 35 32 24 21 21 20 31
internal_value=0 0.0258093 0.0402762 -0.00983524 -0.00830291 -0.00996576 -0.00722328 -0.0116467 0.0185027 0.0111884 0.0280284 -0.0192978 0.00672162 -0.0136552
internal_weight=0 149 50 391 353 317 245 186 99 56 43 72 59 52
internal_count=540 149 50 391 353 317 245 186 99 56 43 72 59 52
is_linear=0
shrinkage=0.1


Tree=6
num_leaves=14
num_cat=0
split_feature=2 0 0 1 3 0 3 3 3 3 2 0 2
split_gain=11.103 1.31389 0.916084 0.830923 1.47924 0.690808 0.706476 1.087 1.22411 1.08602 0.884919 0.346255 0.211161
threshold=11.58862388580256 19.02478910866196 19.951639073572267 4.6500000000000012 0.0087616822429906552 15.745050442420752 0.043808411214953276 0.025700934579439255 0.014602803738317759 0.0040887850467289724 11.567307602211603 19.951639073572267 11.567307602211603
decision_type=2 2 2 2 2 2 2 2 2 2 2 2 2
left_child=5 3 -3 4 -2 -1 7 8 9 -7 -9 -10 -8
right_child=1 2 -4 -5 -6 6 12 10 11 -11 -12 -13 -14
leaf_value=-0.02166280454686402 0.060223522600717838 0.00066860289662145083 0.023922512173238729 0.015748515927597233 0.026624460390915997 -0.0022422599833631933 0.0086976514368628469 -0.035453658063824361 0.00056346967243231256 -0.017568160186754538 -0.010047009741437846 0.016747126914560796 -0.004037984039472497
leaf_weight=38 20 32 36 23 38 86 30 26 39 100 29 20 23
leaf_count=38 20 32 36 23 38 86 30 26 39 100 29 20 23
internal_value=0 0.0232283 0.0129795 0.0318323 0.0382103 -0.00885172 -0.00747262 -0.00935297 -0.00650095 -0.010482 -0.0220574 0.00604946 0.00317087
internal_weight=0 149 68 81 58 391 353 300 245 186 55 59 53
internal_count=540 149 68 81 58 391 353 300 245 186 55 59 53
is_linear=0
shrinkage=0.1


Tree=7
num_leaves=16
num_cat=0
split_feature=2 1 0 1 3 0 3 3 0 3 0 0 0 0 3
split_gain=8.99341 1.33618 1.67693 1.01973 0.906229 0.585866 1.07662 0.897932 1.71816 1.93916 0.664785 0.552709 0.427055 1.1355 0.397488
threshold=11.58862388580256 4.8500000000000005 19.02478910866196 4.5500000000000007 0.0099299065420560759 20.348183068532961 0.0052570093457943931 0.0064252336448598138 17.676798679288854 0.0017523364485981308 15.77293028837053 17.789002912822681 19.960777257386145 19.46559023574325 0.0040887850467289724
decision_type=2 2 2 2 2 2 2 2 2 2 2 2 2 2 2
left_child=5 2 3 11 -4 7 -7 8 -1 -10 -9 -2 13 -12 -11
right_child=1 -3 4 -5 -6 6 -8 10 9 14 12 -13 -14 -15 -16
leaf_value=0.0011862541206314097 0.025909081296551797 0.044284958569776448 -0.0080726260443528507 0.014000539103788991 0.018648122517730705 0.019326508399986089 -0.011387107531540097 -0.018905056131017561 -0.0002486673494180044 -0.029263527847586141 -0.0020818484272493282 0.049137290790677073 0.0084412046936340641 -0.024007510832910028 -0.047345733195543291
leaf_weight=35 21 21 30 35 22 21 25 34 21 31 151 20 25 28 20
leaf_count=35 21 21 30 35 22 21 25 34 21 31 151 20 25 28 20
internal_value=0 0.0209055 0.0170698 0.0265376 0.00323231 -0.00796655 0.00263433 -0.00938 -0.0169887 -0.0258237 -0.00595929 0.0372399 -0.00380166 -0.00551156 -0.0363546
internal_weight=0 149 128 76 52 391 46 345 107 72 238 41 204 179 51
internal_count=540 149 128 76 52 391 46 345 107 72 238 41 204 179 51
is_linear=0
shrinkage=0.1


Tree=8
num_leaves=16
num_cat=0
split_feature=2 1 0 1 0 3 3 3 3 0 3 0 0 0 0
split_gain=7.28466 1.0823 1.35831 0.825985 0.744695 0.580814 1.21952 1.14442 1.36266 0.984894 1.02012 1.18656 0.449393 0.447695 0.258102
threshold=11.58862388580256 4.8500000000000005 19.02478910866196 4.5500000000000007 19.72629665438912 0.05023364485981309 0.075934579439252345 0.025700934579439255 0.03446261682242991 20.39634373401373 0.0064252336448598138 17.676798679288854 17.77485254622766 17.789002912822681 18.58863960147119
decision_type=2 2 2 2 2 2 2 2 2 2 2 2 2 2 2
left_child=5 2 3 13 -4 7 -7 9 -9 10 11 -1 -10 -2 -12
right_child=1 -3 4 -5 -6 6 -8 8 12 -11 14 -13 -14 -15 -16
leaf_value=0.0010676287926201309 0.023318172778402056 0.039856461612951193 -0.0090579867362976085 0.012600484958716802 0.01487613725117766 0.021303400197731599 -0.0093463547637357425 -0.040971317213206071 -0.022469644961149796 0.011288031346855625 -0.0076691663872528199 -0.021008104663342238 -0.0047594960582883735 0.044223561990074815 0.0027011100712115879
leaf_weight=35 21 21 26 35 26 21 34 21 23 31 36 80 38 20 72
leaf_count=35 21 21 26 35 26 21 34 21 23 31 36 80 38 20 72
internal_value=0 0.0188149 0.0153628 0.0238838 0.00290908 -0.00716989 0.00235628 -0.00872923 -0.0190007 -0.00541324 -0.00773494 -0.0142894 -0.0114371 0.0335159 -0.000755649
internal_weight=0 149 128 76 52 391 55 336 82 254 223 115 61 41 108
internal_count=540 149 128 76 52 391 55 336 82 254 223 115 61 41 108
is_linear=0
shrinkage=0.1


Tree=9
num_leaves=17
num_cat=0
split_feature=2 0 0 3 3 1 3 3 3 3 3 3 0 3 0 0
split_gain=5.90058 0.97771 1.28965 0.667893 1.16297 1.09271 0.470459 0.987813 0.926984 1.10375 0.863862 0.825369 2.22285 1.64404 0.364008 0.238388
threshold=11.58862388580256 17.934163883793847 17.465185751903643 0.0052570093457943931 0.015771028037383179 4.6500000000000012 0.05023364485981309 0.075934579439252345 0.025700934579439255 0.03446261682242991 0.014602803738317759 0.0040887850467289724 20.31664537226618 0.0052570093457943931 17.77485254622766 19.951639073572267
decision_type=2 2 2 2 2 2 2 2 2 2 2 2 2 2 2 2
left_child=6 2 -2 5 -5 -3 8 -8 10 -10 11 12 -1 -13 -11 -12
right_child=1 3 -4 4 -6 -7 7 -9 9 14 15 13 -14 -15 -16 -17
leaf_value=-0.0098037011851904114 0.010213507098061118 0.0049754279750314628 0.042567730216043341 -0.0085009372931381232 0.020619545644149185 0.036866314097174578 0.019173060251133786 -0.0084117192446308987 -0.036874184828428996 -0.020222680529822474 0.0011783328289404894 -0.037031220955153307 0.027482607038248154 -0.0073143542716167425 -0.004283546514220928 0.014606639948906378
leaf_weight=67 22 22 28 32 24 21 21 34 21 23 39 24 21 83 38 20
leaf_count=67 22 22 28 32 24 21 21 34 21 23 39 24 21 83 38 20
internal_value=0 0.0169335 0.0283319 0.0111767 0.00397927 0.02055 -0.0064529 0.00212065 -0.00785631 -0.0171007 -0.00487191 -0.00807976 -0.000905832 -0.0139798 -0.0102934 0.0057303
internal_weight=0 149 50 99 56 43 391 55 336 82 254 195 88 107 61 59
internal_count=540 149 50 99 56 43 391 55 336 82 254 195 88 107 61 59
is_linear=0
shrinkage=0.1


Tree=10
num_leaves=15
num_cat=0
split_feature=2 1 0 3 1 0 0 2 0 0 3 3 3 0
split_gain=4.77947 0.841781 0.926002 0.773067 0.70983 0.412924 0.457154 1.01802 0.370247 0.368613 1.24297 1.48418 0.63702 0.347148
threshold=11.58862388580256 4.8500000000000005 19.02478910866196 0.0099299065420560759 4.5500000000000007 15.745050442420752 17.44590686938729 11.567307602211603 17.789002912822681 20.348183068532961 0.0052570093457943931 0.0017523364485981308 0.0052570093457943931 19.960777257386145
decision_type=2 2 2 2 2 2 2 2 2 2 2 2 2 2
left_child=5 2 4 -4 8 -1 7 -7 -2 10 11 -8 -11 -12
right_child=1 -3 3 -5 -6 6 9 -9 -10 12 13 -13 -14 -15
leaf_value=-0.015712332402012849 0.018886530971420665 0.033796858202133864 -0.0085284071850279964 0.016151203786615619 0.00877123667725495 -0.0071360636056799973 0.0020350632298251859 0.020315683446824551 0.037897876419592649 0.014746003447189219 -0.0051349205739278378 -0.028757575549641437 -0.0088792082741856581 0.0075752515941858297
leaf_weight=38 21 21 30 22 35 35 23 22 20 21 153 49 25 25
leaf_count=38 21 21 30 22 35 35 23 22 20 21 153 49 25 25
internal_value=0 0.0152401 0.0121956 0.00191297 0.0192312 -0.00580761 -0.00474138 0.00345935 0.0281604 -0.00632058 -0.00783431 -0.018921 0.00190621 -0.00334978
internal_weight=0 149 128 52 76 391 353 57 41 296 250 72 46 178
internal_count=540 149 128 52 76 391 353 57 41 296 250 72 46 178
is_linear=0
shrinkage=0.1


Tree=11
num_leaves=17
num_cat=0
split_feature=2 0 0 3 3 1 3 3 3 0 3 3 0 3 0 2
split_gain=3.87137 0.772752 1.24291 0.494936 0.987836 0.862551 0.386348 0.783105 0.758509 0.935517 0.641337 0.65538 1.62807 1.23679 0.227035 0.165136
threshold=11.58862388580256 17.847634884533694 17.465185751903643 0.0052570093457943931 0.015771028037383179 4.6500000000000012 0.05023364485981309 0.075934579439252345 0.025700934579439255 17.725306400022721 0.014602803738317759 0.0040887850467289724 19.72629665438912 0.0052570093457943931 18.789460574290235 11.567307602211603
decision_type=2 2 2 2 2 2 2 2 2 2 2 2 2 2 2 2
left_child=6 2 -2 5 -5 -3 8 -8 10 -10 11 12 -1 -13 -12 -11
right_child=1 3 -4 4 -6 -7 7 -9 9 15 14 13 -14 -15 -16 -17
leaf_value=-0.011487722987882219 0.0076713324439796537 0.0036560955092958779 0.040918179374674096 -0.0077729477839810508 0.018253452599048616 0.031687517182442775 0.017725611336174465 -0.0068351716679685261 -0.02969409603891628 -0.014101704604746329 0.012089424766600132 -0.031814024069656929 0.016176908990989128 -0.0060392382004892976 -0.00036189478123560548 -0.0027581153945489367
leaf_weight=52 22 23 23 35 25 21 21 34 28 21 27 24 36 83 32 33
leaf_count=52 22 23 23 35 25 21 21 34 28 21 27 24 36 83 32 33
internal_value=0 0.0137161 0.0246642 0.00897895 0.00307139 0.0170347 -0.00522685 0.00254258 -0.00649863 -0.0148608 -0.00379903 -0.00656301 -0.000170374 -0.0118205 0.00533617 -0.00716951
internal_weight=0 149 45 104 60 44 391 55 336 82 254 195 88 107 59 54
internal_count=540 149 45 104 60 44 391 55 336 82 254 195 88 107 59 54
is_linear=0
shrinkage=0.1


Tree=12
num_leaves=16
num_cat=0
split_feature=2 1 0 0 1 3 0 3 3 0 0 2 3 0 2
split_gain=3.13581 0.646249 0.648476 0.581135 0.485969 0.312942 0.636918 0.634315 0.304207 0.637329 1.44751 1.19675 0.264509 0.233659 0.119391
threshold=11.58862388580256 4.8500000000000005 17.986533813513216 17.465185751903643 4.5500000000000007 0.05023364485981309 15.772914965544585 0.075934579439252345 0.025700934579439255 17.913116246927483 18.571056942693392 11.567307602211603 0.0099299065420560759 17.773311633838492 11.567307602211603
decision_type=2 2 2 2 2 2 2 2 2 2 2 2 2 2 2
left_child=5 2 3 -2 -4 6 -1 -7 9 11 -11 -8 -6 -10 -15
right_child=1 -3 4 -5 12 7 8 -9 13 10 -12 -13 -14 14 -16
leaf_value=-0.022297243263826455 0.006904199516231363 0.028603801840827583 0.012357500919116367 0.028987345543618388 0.0043165870603512633 0.015953050624756587 -0.0095558078324591567 -0.0061516533208572696 -0.019588414058089258 -0.027985160782933234 -0.0022140171740423231 0.02242352728173137 -0.011573219560086728 -0.012691534578888899 -0.0029259751415661268
leaf_weight=22 22 21 38 26 22 21 22 34 20 25 170 25 20 21 31
leaf_count=22 22 21 38 26 22 21 22 34 20 25 170 25 20 21 31
internal_value=0 0.0123445 0.00967694 0.0188659 0.00416357 -0.00470417 -0.00584877 0.00228832 -0.00469633 -0.00299856 -0.00551801 0.00745448 -0.00324999 -0.0104027 -0.00686976
internal_weight=0 149 128 48 80 391 336 55 314 242 195 47 42 72 52
internal_count=540 149 128 48 80 391 336 55 314 242 195 47 42 72 52
is_linear=0
shrinkage=0.1


Tree=13
num_leaves=17
num_cat=0
split_feature=2 0 0 0 3 1 3 3 3 3 3 3 0 3 0 0
split_gain=2.54 0.554055 0.863846 0.466632 0.558407 1.04325 0.253483 0.520266 0.784319 0.513795 0.501717 0.527763 1.36194 1.07836 0.227056 0.20012
threshold=11.58862388580256 17.847634884533694 17.465185751903643 18.546067705058565 0.012850467289719628 4.6500000000000012 0.05023364485981309 0.025700934579439255 0.03446261682242991 0.075934579439252345 0.014602803738317759 0.0040887850467289724 20.31664537226618 0.0052570093457943931 18.571056942693392 19.951639073572267
decision_type=2 2 2 2 2 2 2 2 2 2 2 2 2 2 2 2
left_child=6 2 -2 -3 5 -5 7 10 -9 -8 11 12 -1 -13 -10 -12
right_child=1 3 -4 4 -6 -7 9 8 14 -11 15 13 -14 -15 -16 -17
leaf_value=-0.0067010226680327264 0.0062137790743938904 -0.0054715537344631948 0.033930962268040397 0.0046287845217568039 -0.0025168616486632308 0.031859813684908055 0.014357745044288182 -0.028857848611438558 -0.010871714969107417 -0.0055364887805326897 0.00088113096112815237 -0.028859797554711505 0.022484935820102692 -0.004792402835046671 0.0019690843609472116 0.013184504117816687
leaf_weight=67 22 23 23 34 23 24 21 21 40 34 39 24 21 83 21 20
leaf_count=67 22 23 23 34 23 24 21 21 40 34 39 24 21 83 21 20
internal_value=0 0.01111 0.0203803 0.00709885 0.0106682 0.0158968 -0.00423375 -0.00526389 -0.0121894 0.00205949 -0.00302809 -0.00547277 0.000263808 -0.0101907 -0.00645111 0.00505177
internal_weight=0 149 45 104 81 58 391 336 82 55 254 195 88 107 61 59
internal_count=540 149 45 104 81 58 391 336 82 55 254 195 88 107 61 59
is_linear=0
shrinkage=0.1


Tree=14
num_leaves=15
num_cat=0
split_feature=2 0 0 3 1 1 0 0 2 3 3 0 1 0
split_gain=2.0574 0.460899 0.587866 0.393421 0.961177 0.500033 0.22494 0.423999 0.744604 0.249872 1.84939 1.64185 0.544045 0.219727
threshold=11.58862388580256 17.934163883793847 17.465185751903643 0.0052570093457943931 4.5500000000000007 4.6500000000000012 15.745050442420752 17.44590686938729 11.567307602211603 0.0052570093457943931 0.0040887850467289724 19.72629665438912 4.9500000000000011 18.58863960147119
decision_type=2 2 2 2 2 2 2 2 2 2 2 2 2 2
left_child=6 2 -2 5 -5 -3 -1 8 -8 10 11 -9 13 -11
right_child=1 3 -4 4 -6 -7 7 9 -10 12 -12 -13 -14 -15
leaf_value=-0.011120765244490223 0.0055924010124396191 0.0027047915214842015 0.027436476663154154 0.017435961030423643 -0.0096255509555339819 0.024277896611463456 -0.0041872214020362928 -0.016248660513854311 0.019290437210689893 -0.0049496898247993418 -0.035778171119745822 0.01374820824712515 -0.016085039016867926 0.0022562014641866923
leaf_weight=38 22 22 28 21 35 21 35 37 22 70 20 36 26 107
leaf_count=38 22 22 28 21 35 21 35 37 22 70 20 36 26 107
internal_value=0 0.00999904 0.0178251 0.00604649 0.000522516 0.0132405 -0.00381037 -0.00302342 0.00487433 -0.00454427 -0.00883686 -0.00145568 -0.00257771 -0.000593586
internal_weight=0 149 50 99 56 43 391 353 57 296 93 73 203 177
internal_count=540 149 50 99 56 43 391 353 57 296 93 73 203 177
is_linear=0
shrinkage=0.1


Tree=15
num_leaves=14
num_cat=0
split_feature=2 1 1 0 3 3 0 3 3 3 3 0 0
split_gain=1.6665 0.437653 0.541918 0.895316 0.967478 0.200015 0.440132 0.395232 0.191473 1.01401 0.925075 0.628582 0.287043
threshold=11.58862388580256 4.8500000000000005 4.6500000000000012 19.02478910866196 0.0087616822429906552 0.05023364485981309 15.772914965544585 0.075934579439252345 0.0040887850467289724 0.0029205607476635517 0.0052570093457943931 18.838213500043839 18.58863960147119
decision_type=2 2 2 2 2 2 2 2 2 2 2 2 2
left_child=5 2 3 4 -2 6 -1 -7 9 11 -10 -8 -12
right_child=1 -3 -4 -5 -6 7 8 -9 10 -11 12 -13 -14
leaf_value=-0.01801776457577944 0.036237378194928171 0.022379479725800813 -0.0034003460679102589 -0.0021970535543831913 0.0090649892704708409 0.012947261745908432 -0.020576967499218883 -0.0045012517791131841 -0.024386814033443279 0.018599434528985753 -0.0072358690135229681 0.00096260385499114085 0.00032056084880220496
leaf_weight=22 20 21 37 33 38 21 20 34 22 23 86 42 121
leaf_count=22 20 21 37 33 38 21 20 34 22 23 86 42 121
internal_value=0 0.00899913 0.00680392 0.0109529 0.0184348 -0.00342934 -0.00434441 0.00216091 -0.0033864 0.000666788 -0.00489086 -0.00598564 -0.00281883
internal_weight=0 149 128 91 58 391 336 55 314 85 229 62 207
internal_count=540 149 128 91 58 391 336 55 314 85 229 62 207
is_linear=0
shrinkage=0.1


Tree=16
num_leaves=16
num_cat=0
split_feature=2 3 3 0 1 0 3 3 3 0 2 0 3 3 0
split_gain=1.34986 0.419968 1.04928 0.397269 2.19092 0.35545 0.162012 0.396942 0.629249 0.423919 1.0389 1.00664 0.616518 0.320138 0.149125
threshold=11.58862388580256 0.019275700934579441 0.011098130841121497 19.02478910866196 4.6500000000000012 17.81504338122981 0.05023364485981309 0.025700934579439255 0.03446261682242991 17.913116246927483 11.567307602211603 18.58863960147119 0.01752336448598131 0.075934579439252345 18.571056942693392
decision_type=2 2 2 2 2 2 2 2 2 2 2 2 2 2 2
left_child=6 2 3 5 -5 -2 7 9 -9 10 -1 -11 -13 -8 -10
right_child=1 -3 -4 4 -6 -7 13 8 14 11 -12 12 -14 -15 -16
leaf_value=-0.0084924562387251566 0.0074742394732311371 0.01701540429240618 -0.014595466886054387 -0.016707784779369832 0.026561584611507979 0.026101814103978022 0.011652535590941884 -0.024889237203058745 -0.008401948135579004 -0.022522153012239591 0.018081243781958738 -0.003843318298780199 0.013459886532897751 -0.0040511262332609691 0.0020044503068285331
leaf_weight=28 20 39 22 25 22 21 21 21 40 26 31 145 24 34 21
leaf_count=28 20 39 22 25 22 21 21 21 40 26 31 145 24 34 21
internal_value=0 0.00809922 0.00493803 0.0098214 0.00354596 0.0170152 -0.0030864 -0.00390997 -0.00995925 -0.00195705 0.00547 -0.0042042 -0.00138606 0.00194482 -0.00481942
internal_weight=0 149 110 88 47 41 391 336 82 254 59 195 169 55 61
internal_count=540 149 110 88 47 41 391 336 82 254 59 195 169 55 61
is_linear=0
shrinkage=0.1


Tree=17
num_leaves=16
num_cat=0
split_feature=2 3 3 0 1 0 0 2 3 0 3 3 1 3 0
split_gain=1.09339 0.340174 0.849919 0.329211 0.315692 0.726088 0.149157 0.621398 0.682057 0.536099 0.453711 0.402073 0.387882 0.953974 0.27864
threshold=11.58862388580256 0.019275700934579441 0.011098130841121497 17.847634884533694 4.7500000000000009 19.629780922130511 18.007629361245861 11.567307602211603 0.05023364485981309 18.38712949853829 0.01752336448598131 0.0017523364485981308 4.5500000000000007 0.0040887850467289724 15.781715505458246
decision_type=2 2 2 2 2 2 2 2 2 2 2 2 2 2 2
left_child=6 2 3 -2 5 -5 7 8 14 -8 -9 -11 -13 -14 -1
right_child=1 -3 -4 4 -6 -7 9 10 -10 11 -12 12 13 -15 -16
leaf_value=-0.021585051129971233 0.019121524262363496 0.015313864002625147 -0.013135920058597218 0.012333526000704455 0.014944034637036649 -0.01371900574769825 -0.019563065141084648 0.016017502487326665 0.0071335678472398568 0.0103192324084895 -0.00063385096921895947 -0.013179688738324705 0.015095792600402126 -0.005470120973110091 -0.0068499959723064404
leaf_weight=21 23 39 22 23 22 20 21 30 26 21 36 39 27 137 33
leaf_count=21 23 39 22 23 22 20 21 30 26 21 36 39 27 137 33
internal_value=0 0.0072893 0.00444422 0.00883926 0.00520092 0.000216069 -0.00277776 -0.000247649 -0.00617329 -0.0042855 0.00693495 -0.00285323 -0.0042159 -0.00208427 -0.0125803
internal_weight=0 149 110 88 65 43 391 146 80 245 66 224 203 164 54
internal_count=540 149 110 88 65 43 391 146 80 245 66 224 203 164 54
is_linear=0
shrinkage=0.1


Tree=18
num_leaves=15
num_cat=0
split_feature=2 3 3 0 1 0 0 0 0 3 3 3 2 3
split_gain=0.885645 0.275541 0.688434 0.266661 0.25571 0.588131 0.139682 0.319205 0.472571 0.431186 0.403927 0.221557 0.479255 0.366996
threshold=11.58862388580256 0.019275700934579441 0.011098130841121497 17.847634884533694 4.7500000000000009 19.629780922130511 15.745050442420752 17.996582439493537 18.305954041483705 0.0017523364485981308 0.0064252336448598138 0.01752336448598131 11.567307602211603 0.043808411214953276
decision_type=2 2 2 2 2 2 2 2 2 2 2 2 2 2
left_child=6 2 3 -2 5 -5 -1 11 -9 -10 -11 12 -8 -13
right_child=1 -3 -4 4 -6 -7 7 8 9 10 -12 13 -14 -15
leaf_value=-0.0082607085130324484 0.017209371892006501 0.013782477627197901 -0.011822327759794214 0.011100173387271555 0.013449630941348998 -0.012347105222579558 -0.0024823744254915611 -0.018585904836654663 0.010752627151933584 -0.01042104269180334 -0.00092049114696728411 -0.0079009763630373143 0.017718149085218706 0.0081542831438127916
leaf_weight=38 23 39 22 23 22 20 23 20 22 66 139 35 24 24
leaf_count=38 23 39 22 23 22 20 23 20 22 66 139 35 24 24
internal_value=0 0.00656037 0.0039998 0.00795533 0.00468083 0.000194462 -0.00249999 -0.00187985 -0.00384979 -0.00255145 -0.00397921 0.00271047 0.00783279 -0.00137002
internal_weight=0 149 110 88 65 43 391 353 247 227 205 106 47 59
internal_count=540 149 110 88 65 43 391 353 247 227 205 106 47 59
is_linear=0
shrinkage=0.1


Tree=19
num_leaves=15
num_cat=0
split_feature=2 1 1 3 0 0 0 0 0 3 3 2 3 0
split_gain=0.717372 0.254115 0.477134 0.429714 2.45207 0.223496 0.117431 0.274352 0.382783 0.34926 0.334692 0.230289 0.496692 0.14021
threshold=11.58862388580256 4.8500000000000005 4.6500000000000012 0.0099299065420560759 19.02478910866196 18.18522189425444 15.772914965544585 17.996582439493537 18.305954041483705 0.0017523364485981308 0.0052570093457943931 11.567307602211603 0.01752336448598131 17.336784450315673
decision_type=2 2 2 2 2 2 2 2 2 2 2 2 2 2
left_child=6 2 3 4 -2 -5 -1 11 -9 -10 -11 13 -13 -8
right_child=1 -3 -4 5 -6 -7 7 8 9 10 -12 12 -14 -15
leaf_value=-0.0073134127413717713 0.022003539685661405 0.016100037576896802 -0.0053433165042283577 0.0080998486034910798 -0.023939393052742595 0.022353896816176447 0.0025435277438696684 -0.016727314107120039 0.0096773645755919551 -0.01025411070747809 -0.0011345820390221586 0.018749699699269099 -0.00076914841192774483 -0.0082110725131563159
leaf_weight=41 26 21 37 22 21 22 27 20 22 55 150 22 32 22
leaf_count=41 26 21 37 22 21 22 27 20 22 55 150 22 32 22
internal_value=0 0.00590433 0.0042316 0.00812469 0.00147585 0.0152269 -0.00224999 -0.00165684 -0.00346481 -0.00229631 -0.00358128 0.00267876 0.00718297 -0.00228507
internal_weight=0 149 128 91 47 44 391 350 247 227 205 103 54 49
internal_count=540 149 128 91 47 44 391 350 247 227 205 103 54 49
is_linear=0
shrinkage=0.1


Tree=20
num_leaves=14
num_cat=0
split_feature=2 3 1 0 0 0 0 0 0 3 0 3 2
split_gain=0.581072 0.228094 0.707276 0.465156 0.975845 0.127927 0.452881 0.20195 0.304252 0.253584 0.247079 0.201065 0.194337
threshold=11.58862388580256 0.012850467289719628 4.5500000000000007 18.266571954218858 19.597132714319265 15.25303375163927 15.773505815603325 18.007629361245861 18.38712949853829 0.01752336448598131 18.776182082109894 0.043808411214953276 11.567307602211603
decision_type=2 2 2 2 2 2 2 2 2 2 2 2 2
left_child=5 3 -3 -2 -5 -1 -7 9 -9 12 -10 -11 -8
right_child=1 2 -4 4 -6 6 7 8 10 11 -12 -13 -14
leaf_value=0.0048959235809743406 -0.00045014479669350151 0.012567095768948398 -0.010827275272458792 0.031695077046751972 0.0045263607842990989 -0.016407486135986717 0.00096516536083072427 -0.014657624065876007 0.0060658760765363697 -0.0068497318481760376 -0.0034252278436421573 0.0053502830592068763 0.014585125577551398
leaf_weight=25 38 24 28 20 39 22 20 21 32 35 192 22 22
leaf_count=25 38 24 28 20 39 22 20 21 32 35 192 22 22
internal_value=0 0.0053139 -2.98733e-05 0.0081786 0.0137361 -0.00202499 -0.00249773 -0.00160815 -0.00314835 0.00220345 -0.00206936 -0.00214095 0.00809943
internal_weight=0 149 52 97 59 391 366 344 245 99 224 57 42
internal_count=540 149 52 97 59 391 366 344 245 99 224 57 42
is_linear=0
shrinkage=0.1


Tree=21
num_leaves=17
num_cat=0
split_feature=2 1 1 3 0 0 0 1 0 3 0 0 0 3 0 1
split_gain=0.470668 0.220111 0.324455 0.361715 2.05023 0.178162 0.113555 0.575456 0.407001 0.268968 0.482077 0.404811 0.20059 0.312823 0.163826 0.160298
threshold=11.58862388580256 4.8500000000000005 4.6500000000000012 0.0099299065420560759 19.02478910866196 18.18522189425444 20.348183068532961 4.9500000000000011 20.428930907291626 0.0064252336448598138 18.074857602195337 19.482261493478855 17.676798679288854 0.05023364485981309 19.46559023574325 4.6500000000000012
decision_type=2 2 2 2 2 2 2 2 2 2 2 2 2 2 2 2
left_child=6 2 3 4 -2 -5 7 9 -8 10 15 -12 13 -11 -14 -1
right_child=1 -3 -4 5 -6 -7 8 -9 -10 12 11 -13 14 -15 -16 -17
leaf_value=0.0083279301412403587 0.0191063876514538 0.014271566679789908 -0.0046700170584576765 0.0065888452682305466 -0.022903714080651602 0.019315396257760853 0.011850435783465703 -0.017381084671554466 -0.0069799811325289996 -0.0090323508293791259 -0.02054494020563585 -0.003666930099328359 0.0049933014583646088 0.003635488179113184 -0.0025577134126797321 -0.0038865960047890745
leaf_weight=22 26 21 37 22 21 22 24 24 22 44 27 30 102 35 40 21
leaf_count=22 26 21 37 22 21 22 24 24 22 44 27 30 102 35 40 21
internal_value=0 0.00478251 0.00322571 0.00643606 0.000335917 0.0129521 -0.00182249 -0.00244477 0.00284458 -0.00132803 -0.00563125 -0.0116618 0.000619126 -0.00342002 0.00286626 0.0023627
internal_weight=0 149 128 91 47 44 391 345 46 321 100 57 221 79 142 43
internal_count=540 149 128 91 47 44 391 345 46 321 100 57 221 79 142 43
is_linear=0
shrinkage=0.1


Tree=22
num_leaves=15
num_cat=0
split_feature=2 3 1 0 0 3 0 3 1 0 3 0 3 0
split_gain=0.381241 0.203328 0.533191 0.447833 0.774658 0.123435 0.884525 0.872223 0.364193 0.26342 0.326043 0.233825 0.698055 0.167051
threshold=11.58862388580256 0.012850467289719628 4.6500000000000012 18.266571954218858 19.597132714319265 0.0040887850467289724 20.31664537226618 0.0052570093457943931 4.9500000000000011 17.664016788042925 0.05023364485981309 18.074857602195337 0.0017523364485981308 17.913116246927483
decision_type=2 2 2 2 2 2 2 2 2 2 2 2 2 2
left_child=5 3 -3 -2 -5 6 11 -7 9 10 -9 -1 -13 -11
right_child=1 2 -4 4 -6 7 -8 8 -10 13 -12 12 -14 -15
leaf_value=0.004492777520367368 -0.0014575713425935982 0.0072642559753148817 -0.013549617086537184 0.028462970028631393 0.0042563786921210782 -0.020890941889956594 0.019564467952364967 -0.0091189259847548488 -0.01229450456224955 0.010619505905461582 0.0032719390679683009 0.0052280109907899587 -0.019737236822644871 0.0012548662515514545
leaf_weight=22 38 32 20 20 39 24 21 54 26 22 35 21 24 142
leaf_count=22 38 32 20 20 39 24 21 54 26 22 35 21 24 142
internal_value=0 0.00430426 -0.00074108 0.00700897 0.012462 -0.00164024 0.0016567 -0.00259777 -0.00102416 0.000134055 -0.00424611 -0.00395618 -0.00808679 0.0025111
internal_weight=0 149 52 97 59 391 88 303 279 253 89 67 45 164
internal_count=540 149 52 97 59 391 88 303 279 253 89 67 45 164
is_linear=0
shrinkage=0.1


Tree=23
num_leaves=16
num_cat=0
split_feature=2 0 0 0 0 0 3 3 3 0 1 0 3 0 1
split_gain=0.308805 0.19455 0.829806 0.503509 0.260595 0.368522 0.0999825 0.84627 0.706501 0.429406 0.294996 0.21337 0.264095 0.135311 0.109928
threshold=11.58862388580256 17.847634884533694 18.546067705058565 17.465185751903643 19.482261493478855 19.72629665438912 0.0040887850467289724 0.0029205607476635517 0.0052570093457943931 18.838213500043839 4.9500000000000011 17.664016788042925 0.05023364485981309 17.913116246927483 4.7500000000000009
decision_type=2 2 2 2 2 2 2 2 2 2 2 2 2 2 2
left_child=6 3 -3 -2 -4 -6 7 9 -8 -1 11 12 -10 -13 -11
right_child=1 2 4 -5 5 -7 8 -9 10 14 -12 13 -14 -15 -16
leaf_value=-0.015831864637915385 -0.0014484582257203082 -0.015266014720596697 0.015263995018018329 0.019712469272275011 -0.0083024488762021061 0.0084677790715910594 -0.018801847534875075 0.017504939239006489 -0.0082070336987574901 -0.0034637809138406413 -0.011065053753554821 0.0095575556103457623 0.0029447452644152301 0.0011293794362950075 0.0067798091471195226
leaf_weight=22 22 23 23 23 20 38 24 24 54 22 26 22 35 142 20
leaf_count=22 22 23 23 23 20 38 24 24 54 22 26 22 35 142 20
internal_value=0 0.00387383 0.00149692 0.00936713 0.00625677 0.00268494 -0.00147622 0.00149103 -0.00233799 -0.00451419 -0.000921746 0.00012065 -0.0038215 0.00225999 0.00141412
internal_weight=0 149 104 45 81 58 391 88 303 64 279 253 89 164 42
internal_count=540 149 104 45 81 58 391 88 303 64 279 253 89 164 42
is_linear=0
shrinkage=0.1


Tree=24
num_leaves=14
num_cat=0
split_feature=2 3 0 0 3 0 0 2 3 3 0 1 0
split_gain=0.250132 0.205381 0.501874 0.517802 0.513527 0.0856354 0.201515 0.304585 0.136287 0.966826 0.8282 0.268546 0.171839
threshold=11.58862388580256 0.019275700934579441 20.28811984674088 18.266571954218858 0.0052570093457943931 15.719023886802512 17.44590686938729 11.567307602211603 0.0052570093457943931 0.0040887850467289724 19.72629665438912 4.9500000000000011 19.960777257386145
decision_type=2 2 2 2 2 2 2 2 2 2 2 2 2
left_child=5 2 3 -2 -5 -1 7 -7 9 10 -8 12 -10
right_child=1 -3 -4 4 -6 6 8 -9 11 -11 -12 -13 -14
leaf_value=-0.0059758993939289622 -0.0039450769157459344 0.0097216572158802788 -0.01223345934836702 0.020362257611538686 -0.00032442736749847736 -0.0012638126768352879 -0.010260833972259551 0.013468311984172983 -0.00051041252118509824 -0.024570787418633701 0.011043942098816236 -0.0099585482707390417 0.0076872545144250322
leaf_weight=36 39 39 22 28 21 36 37 23 146 20 36 26 31
leaf_count=36 39 39 22 28 21 36 37 23 146 20 36 26 31
internal_value=0 0.00348645 0.00127578 0.00465309 0.0114965 -0.0013286 -0.000857319 0.00447922 -0.00192102 -0.00509123 0.000245631 -0.000468658 0.000925337
internal_weight=0 149 110 88 49 391 355 59 296 93 73 203 177
internal_count=540 149 110 88 49 391 355 59 296 93 73 203 177
is_linear=0
shrinkage=0.1


Tree=25
num_leaves=14
num_cat=0
split_feature=3 3 3 0 0 0 1 3 3 1 1 3 0
split_gain=0.241174 1.04444 1.01013 0.624573 0.61575 1.27463 0.666109 0.584015 0.544852 0.475862 0.351552 0.120206 0.0232423
threshold=0.043808411214953276 0.025700934579439255 0.019275700934579441 19.629780922130511 20.301843524290248 20.348183068532961 4.7500000000000009 0.03446261682242991 0.015771028037383179 4.8500000000000005 4.7500000000000009 0.05023364485981309 17.066070459054874
decision_type=2 2 2 2 2 2 2 2 2 2 2 2 2
left_child=1 2 4 -4 8 -6 -7 -3 9 -1 11 -2 -13
right_child=10 7 3 -5 5 6 -8 -9 -10 -11 -12 12 -14
leaf_value=0.0013754814255662496 0.0024780567770358178 -0.023946689290029032 0.0040415955622765147 0.028458454329520468 -0.028395330258037733 -0.014086645352654159 0.0094737276186545698 -0.0046038960534575827 -0.012650271065533162 0.015921568542718888 -0.0051882723802700644 0.014249795285009205 0.009544950049547923
leaf_weight=224 20 27 22 20 23 20 30 37 25 25 25 21 21
leaf_count=224 20 27 22 20 23 20 30 37 25 25 25 21 21
internal_value=0 -0.000926146 0.00102149 0.0156687 -0.000751364 -0.00891252 4.95784e-05 -0.0127641 0.00142296 0.00283593 0.00482234 0.00885888 0.0118974
internal_weight=0 453 389 42 347 73 50 64 274 249 87 62 42
internal_count=540 453 389 42 347 73 50 64 274 249 87 62 42
is_linear=0
shrinkage=0.1


Tree=26
num_leaves=14
num_cat=0
split_feature=0 0 0 0 0 0 3 3 3 0 2 1 0
split_gain=0.200398 0.380574 0.724307 0.531178 0.501563 0.250519 1.02878 0.604087 0.210954 0.15319 0.23347 0.155231 0.0994482
threshold=15.745050442420752 17.913116246927483 18.457992376421565 17.664016788042925 18.765007219080818 19.951639073572267 0.019275700934579441 0.015771028037383179 0.015771028037383179 17.498137715021794 11.567307602211603 4.6500000000000012 17.292753621288309
decision_type=2 2 2 2 2 2 2 2 2 2 2 2 2
left_child=-1 3 8 9 -4 7 -7 -6 -3 10 12 -12 -2
right_child=1 2 4 -5 5 6 -8 -9 -10 -11 11 -13 -14
leaf_value=-0.006810909188352525 0.0023356435120645488 -0.018689198557287453 0.01229901591202978 0.014823387834267357 0.00049636106102427999 -0.0026235308279568444 0.018277265155507674 -0.014086619598674589 -0.0060510677551584586 -0.0064578626659654442 0.013556837354553864 0.0017840260373694556 -0.0074074455350637437
leaf_weight=40 22 25 33 39 98 98 31 40 28 21 24 21 20
leaf_count=40 22 25 33 39 98 98 31 40 28 21 24 21 20
internal_value=0 0.000544873 -0.00123548 0.00482014 0.000668451 -0.000769034 0.00239914 -0.00373059 -0.0120125 0.00120786 0.00305821 0.00806286 -0.00230392
internal_weight=0 500 353 147 300 267 129 138 53 108 87 45 42
internal_count=540 500 353 147 300 267 129 138 53 108 87 45 42
is_linear=0
shrinkage=0.1


Tree=27
num_leaves=13
num_cat=0
split_feature=3 3 3 0 0 3 0 3 0 3 1 0
split_gain=0.220932 0.85371 0.709263 0.472328 1.03245 0.603425 0.463081 0.518809 0.458695 0.45147 0.278933 0.118719
threshold=0.043808411214953276 0.025700934579439255 0.019275700934579441 20.301843524290248 20.348183068532961 0.0040887850467289724 19.960777257386145 0.015771028037383179 19.629780922130511 0.03446261682242991 4.7500000000000009 15.781574183077931
decision_type=2 2 2 2 2 2 2 2 2 2 2 2
left_child=1 2 3 6 -5 -6 7 -1 -4 -3 11 -2
right_child=10 9 8 4 5 -7 -8 -9 -10 -11 -12 -13
leaf_value=0.0015164806224941072 0.0027049002984616283 -0.021421100730421368 0.0031837646849453452 -0.025293444032254427 0.011741225840523839 -0.010247721222157662 0.015206881299276243 -0.014238661041726237 0.024108521174639463 -0.0044143429403570855 -0.0043014169074594979 0.011688665212377122
leaf_weight=229 24 27 22 23 24 26 22 23 20 37 25 38
leaf_count=229 24 27 22 23 24 26 22 23 20 37 25 38
internal_value=0 -0.000886427 0.000874419 -0.000611136 -0.00775891 0.000306973 0.0012932 7.85113e-05 0.0131479 -0.0115891 0.00461553 0.00821108
internal_weight=0 453 389 347 73 50 274 252 42 64 87 62
internal_count=540 453 389 347 73 50 274 252 42 64 87 62
is_linear=0
shrinkage=0.1


Tree=28
num_leaves=12
num_cat=0
split_feature=3 3 3 3 0 3 0 0 3 3 3
split_gain=0.178955 0.691505 0.574503 0.407614 1.06837 0.500319 0.380462 0.371543 0.36569 0.249873 0.217613
threshold=0.043808411214953276 0.025700934579439255 0.019275700934579441 0.012850467289719628 18.789460574290235 0.0099299065420560759 17.847634884533694 19.629780922130511 0.03446261682242991 0.075934579439252345 0.05023364485981309
decision_type=2 2 2 2 2 2 2 2 2 2 2
left_child=1 2 3 5 -5 6 -1 -4 -3 10 -2
right_child=9 8 7 4 -6 -7 -8 -9 -10 -11 -12
leaf_value=0.0057241634342490751 0.0025264334604144095 -0.019278991082683206 0.0028653881597247993 0.0036123973740772768 -0.023793767917901276 0.011519845794790831 -0.0030425269622995346 0.021697669131681325 -0.0039729086918177435 -0.0017915159141501553 0.01600454795052824
leaf_weight=68 25 27 22 33 25 39 182 20 37 39 23
leaf_count=68 25 27 22 33 25 39 182 20 37 39 23
internal_value=0 -0.000797784 0.000786977 -0.000550023 -0.0082006 0.000985388 -0.000657987 0.0118331 -0.0104302 0.00415398 0.0089847
internal_weight=0 453 389 347 58 289 250 42 64 87 48
internal_count=540 453 389 347 58 289 250 42 64 87 48
is_linear=0
shrinkage=0.1


Tree=29
num_leaves=13
num_cat=0
split_feature=2 1 0 1 1 0 1 0 3 3 3 3
split_gain=0.169693 0.18792 0.278711 0.461647 0.982022 0.498822 0.098879 0.977189 0.216667 0.569028 0.280348 0.330433
threshold=11.58862388580256 4.8500000000000005 19.960777257386145 4.4500000000000011 4.5500000000000007 18.41430297214227 4.9500000000000011 20.31664537226618 0.0017523364485981308 0.0029205607476635517 0.0040887850467289724 0.0052570093457943931
decision_type=2 2 2 2 2 2 2 2 2 2 2 2
left_child=6 2 3 -2 -5 -6 8 -8 -1 -10 -11 -12
right_child=1 -3 -4 4 5 -7 7 -9 9 10 11 -13
leaf_value=0.0086263198017453146 -0.013311515311184137 0.01163940534350418 0.011146847867833761 0.017098120866964262 0.0036211365745489107 -0.016192777163814755 -0.020221861756660724 0.010319440104067327 -0.014847497349338873 0.011203251805688654 -0.012258242734748384 0.00026081838334906891
leaf_weight=24 23 21 24 30 27 24 22 20 28 21 23 253
leaf_count=24 23 21 24 30 27 24 22 20 28 21 23 253
internal_value=0 0.00287164 0.00143318 -0.000808435 0.00274182 -0.00570306 -0.00109431 -0.00567838 -0.000542643 -0.00121974 6.50362e-05 -0.000782437
internal_weight=0 149 128 104 81 51 391 42 349 325 297 276
internal_count=540 149 128 104 81 51 391 42 349 325 297 276
is_linear=0
shrinkage=0.1


Tree=30
num_leaves=13
num_cat=0
split_feature=0 0 0 0 3 1 0 3 0 0 0 0
split_gain=0.163793 0.256479 0.602023 0.442639 0.437049 0.705918 0.653411 0.412187 0.345893 0.128052 0.183088 0.191646
threshold=15.745050442420752 17.913116246927483 18.266571954218858 17.664016788042925 0.0040887850467289724 4.5500000000000007 19.72629665438912 0.0064252336448598138 18.546067705058565 17.498137715021794 17.375242169787459 17.05675762546834
decision_type=2 2 2 2 2 2 2 2 2 2 2 2
left_child=-1 3 -3 9 5 -4 -7 -6 -9 10 11 -2
right_child=1 2 4 -5 7 6 -8 8 -10 -11 -12 -13
leaf_value=-0.0061575279012322428 0.0068247405928559607 -0.013037683351619825 -0.0060530623188242323 0.013133872664557436 -0.012136515454553506 -0.0013530210632344952 0.019705468270836808 -0.012249652420481046 0.0013765773962421176 -0.0063038199430420286 0.010281760691114786 -0.0044267246749524662
leaf_weight=40 24 37 32 39 34 23 41 21 165 21 22 41
leaf_count=40 24 37 32 39 34 23 41 21 165 21 22 41
internal_value=0 0.000492602 -0.000968942 0.0040023 0.00044417 0.00607403 0.0121376 -0.0020125 -0.000161868 0.000704783 0.00239651 -0.000272337
internal_weight=0 500 353 147 316 96 64 220 186 108 87 65
internal_count=540 500 353 147 316 96 64 220 186 108 87 65
is_linear=0
shrinkage=0.1


Tree=31
num_leaves=7
num_cat=0
split_feature=0 0 0 0 0 1
split_gain=0.188762 0.475292 0.543468 0.455655 0.381675 0.282544
threshold=20.436964754477604 20.348183068532961 20.301843524290248 19.960777257386145 19.750761063714368 4.5500000000000007
decision_type=2 2 2 2 2 2
left_child=1 2 3 4 5 -1
right_child=-2 -3 -4 -5 -6 -7
leaf_value=0.0045379285072617301 -0.008485822364687921 0.011838345476665863 -0.013666178388842222 0.011089066833232505 -0.013628322648860158 -0.0014483295364219597
leaf_weight=109 25 34 29 37 21 285
leaf_count=109 25 34 29 37 21 285
internal_value=0 0.000411933 -0.000395755 0.000455666 -0.000492372 0.000207767
internal_weight=0 515 481 452 415 394
internal_count=540 515 481 452 415 394
is_linear=0
shrinkage=0.1


Tree=32
num_leaves=13
num_cat=0
split_feature=3 3 3 0 0 1 0 3 1 3 1 0
split_gain=0.176064 0.564416 0.445363 0.38996 0.621109 0.47387 0.310966 0.297846 0.375357 0.295482 0.230691 0.0965358
threshold=0.043808411214953276 0.025700934579439255 0.019275700934579441 20.301843524290248 20.348183068532961 4.7500000000000009 19.629780922130511 0.015771028037383179 4.8500000000000005 0.03446261682242991 4.7500000000000009 15.781574183077931
decision_type=2 2 2 2 2 2 2 2 2 2 2 2
left_child=1 2 3 7 -5 -6 -4 8 -1 -3 11 -2
right_child=10 9 6 4 5 -7 -8 -9 -10 -11 -12 -13
leaf_value=0.00094120526430612839 0.0024249805292735501 -0.017447801978172115 0.0021619831719859083 -0.020631593336229742 -0.012698511909693481 0.0071733711908260993 0.019390768809244036 -0.009211596731096507 0.013860175803303718 -0.0036892548253810082 -0.0039889693395234651 0.010526054016142887
leaf_weight=224 24 27 22 23 20 30 20 25 25 37 25 38
leaf_count=224 24 27 22 23 20 30 20 25 25 37 25 38
internal_value=0 -0.000791314 0.000640431 -0.000536747 -0.00703145 -0.000775382 0.0103662 0.00119359 0.00223829 -0.00949364 0.00412029 0.00739015
internal_weight=0 453 389 347 73 50 42 274 249 64 87 62
internal_count=540 453 389 347 73 50 42 274 249 64 87 62
is_linear=0
shrinkage=0.1


Tree=33
num_leaves=7
num_cat=0
split_feature=0 0 0 0 0 1
split_gain=0.156835 0.397755 0.34416 0.323207 0.315923 0.22732
threshold=20.436964754477604 20.348183068532961 20.301843524290248 19.960777257386145 19.750761063714368 4.5500000000000007
decision_type=2 2 2 2 2 2
left_child=1 2 3 4 5 -1
right_child=-2 -3 -4 -5 -6 -7
leaf_value=0.0040366910087209574 -0.0077349713146686559 0.010828391007859917 -0.010923727267775043 0.0092697423731757187 -0.01243531530102094 -0.0013327756802461585
leaf_weight=109 25 34 29 37 21 285
leaf_count=109 25 34 29 37 21 285
internal_value=0 0.000375484 -0.000363391 0.000314153 -0.000484297 0.000152686
internal_weight=0 515 481 452 415 394
internal_count=540 515 481 452 415 394
is_linear=0
shrinkage=0.1


Tree=34
num_leaves=15
num_cat=0
split_feature=3 3 3 0 0 1 2 0 0 1 3 1 3 0
split_gain=0.151002 0.448115 0.336443 0.304275 0.428957 0.407989 0.288024 0.40963 0.343905 0.259154 0.246318 0.187713 0.0817259 0.0373838
threshold=0.043808411214953276 0.025700934579439255 0.019275700934579441 20.301843524290248 20.342395660067282 4.7500000000000009 11.567307602211603 19.128542213384844 19.02478910866196 4.5500000000000007 0.03446261682242991 4.7500000000000009 0.05023364485981309 17.066070459054874
decision_type=2 2 2 2 2 2 2 2 2 2 2 2 2 2
left_child=1 2 3 6 -5 -6 7 -1 -8 -4 -3 12 -2 -14
right_child=11 10 9 4 5 -7 8 -9 -10 -11 -12 -13 13 -15
leaf_value=-0.010647220739033507 0.0015040634945034982 -0.015749254788237591 0.00075755315832793713 -0.018279723468280974 -0.011689417584354735 0.0062394848528007675 0.0066064276266843084 0.0032377992756664753 -0.0021546978825601202 0.016485698961398818 -0.0031873633707495963 -0.0034992049168795351 0.012254195305563155 0.006287318521312305
leaf_weight=43 20 27 20 21 22 30 116 42 73 22 37 25 21 21
leaf_count=43 20 27 20 21 22 30 116 42 73 22 37 25 21 21
internal_value=0 -0.000732832 0.000542903 -0.000480251 -0.00621722 -0.00134582 0.00104821 -0.00378639 0.0032225 0.00899611 -0.00848691 0.00381578 0.00676537 0.00927076
internal_weight=0 453 389 347 73 52 274 85 189 42 64 87 62 42
internal_count=540 453 389 347 73 52 274 85 189 42 64 87 62 42
is_linear=0
shrinkage=0.1


Tree=35
num_leaves=12
num_cat=0
split_feature=0 3 3 3 0 0 0 0 0 3 0
split_gain=0.12966 0.206391 0.277477 0.259722 0.292635 0.980418 0.360511 0.214791 0.139566 0.13712 0.0795514
threshold=15.745050442420752 0.043808411214953276 0.025700934579439255 0.019275700934579441 17.847634884533694 18.266571954218858 17.35775892669675 19.629780922130511 18.957312015014708 0.03446261682242991 17.401454365507075
decision_type=2 2 2 2 2 2 2 2 2 2 2
left_child=-1 2 3 4 6 -6 -2 -5 10 -4 -3
right_child=1 8 9 7 5 -7 -8 -9 -10 -11 -12
leaf_value=-0.0054785021487623459 -0.003080114403799657 0.0047158179664984349 -0.012701058962746807 0.001278021347455003 -0.018840157088513179 0.00037567422128568736 0.010934423688385222 0.015596817210316659 -0.00095991412876173855 -0.0028686269412975056 0.013528154293696085
leaf_weight=40 31 20 23 22 30 231 45 20 20 37 21
leaf_count=40 31 20 23 22 30 231 45 20 20 37 21
internal_value=0 0.00043828 -0.000319064 0.000681252 -0.000242903 -0.00183304 0.00521797 0.0080965 0.00588868 -0.00663773 0.00922945
internal_weight=0 500 439 379 337 261 76 42 61 60 41
internal_count=540 500 439 379 337 261 76 42 61 60 41
is_linear=0
shrinkage=0.1


Tree=36
num_leaves=8
num_cat=0
split_feature=0 0 0 0 0 3 0
split_gain=0.130852 0.334238 0.221901 0.258979 0.263688 0.498538 0.431349
threshold=20.436964754477604 20.348183068532961 20.292274876293401 19.960777257386145 19.482261493478855 0.0075934579439252336 19.380081826113514
decision_type=2 2 2 2 2 2 2
left_child=1 2 3 4 6 -6 -1
right_child=-2 -3 -4 -5 5 -7 -8
leaf_value=-0.00027127087574050035 -0.0070652271062135704 0.0099250039304880546 -0.0083798860898241408 0.0086296653306549963 0.0023264459362535767 -0.01519112847163342 0.014193113265686076
leaf_weight=328 25 34 32 34 33 32 22
leaf_count=328 25 34 32 34 33 32 22
internal_value=0 0.000342972 -0.000334344 0.000239058 -0.000448366 -0.00629759 0.000637919
internal_weight=0 515 481 449 415 65 350
internal_count=540 515 481 449 415 65 350
is_linear=0
shrinkage=0.1


Tree=37
num_leaves=11
num_cat=0
split_feature=3 3 3 3 3 3 3 1 3 3
split_gain=0.106114 0.307286 0.219162 0.265103 0.464493 0.320389 0.201215 0.179034 0.161146 0.151873
threshold=0.043808411214953276 0.025700934579439255 0.019275700934579441 0.015771028037383179 0.014602803738317759 0.011098130841121497 0.075934579439252345 4.5500000000000007 0.03446261682242991 0.05023364485981309
decision_type=2 2 2 2 2 2 2 2 2 2
left_child=1 2 3 4 5 -1 9 -4 -3 -2
right_child=6 8 7 -5 -6 -7 -8 -9 -10 -11
leaf_value=0.00043707320374864952 0.0021383926942944525 -0.012909456076859324 0.00041704833507537846 -0.0097131969706554504 0.015189371295273306 -0.011388690650463105 -0.0021365535729460251 0.013489769636230034 -0.0027489174270650019 0.013398106444789016
leaf_weight=274 25 27 20 28 20 25 39 22 37 23
leaf_count=274 25 27 20 28 20 25 39 22 37 23
internal_value=0 -0.000614328 0.000442094 -0.000383693 0.000435198 -0.000551703 0.00319874 0.00726466 -0.00703539 0.00753367
internal_weight=0 453 389 347 319 299 87 42 64 48
internal_count=540 453 389 347 319 299 87 42 64 48
is_linear=0
shrinkage=0.1


Tree=38
num_leaves=8
num_cat=0
split_feature=0 0 0 0 1 1 0
split_gain=0.104244 0.279162 0.182192 0.196155 0.249274 0.729104 0.355259
threshold=20.436964754477604 20.348183068532961 20.292274876293401 19.968829758299808 4.4500000000000011 4.5500000000000007 18.613287686762735
decision_type=2 2 2 2 2 2 2
left_child=1 2 3 4 6 -6 -1
right_child=-2 -3 -4 -5 5 -7 -8
leaf_value=0.0020691570043563845 -0.0063061150610446929 0.0090631726471816793 -0.0076031009433791047 0.0084699342613694852 0.010497632181091655 -0.0013945636821886393 -0.014197573669511696
leaf_weight=25 25 34 32 27 62 306 29
leaf_count=25 25 34 32 27 62 306 29
internal_value=0 0.000306122 -0.000312879 0.000206691 -0.000322 0.000609013 -0.00666668
internal_weight=0 515 481 449 422 368 54
internal_count=540 515 481 449 422 368 54
is_linear=0
shrinkage=0.1


Tree=39
num_leaves=11
num_cat=0
split_feature=0 0 0 0 3 0 0 0 0 0
split_gain=0.100257 0.161042 0.462933 0.371459 0.325958 0.38451 0.396841 0.140353 0.173093 0.145643
threshold=15.745050442420752 17.913116246927483 18.123651516518013 17.664016788042925 0.0017523364485981308 18.457992376421565 18.663695269246109 17.498137715021794 17.375242169787459 17.05675762546834
decision_type=2 2 2 2 2 2 2 2 2 2
left_child=-1 3 -3 7 -4 -6 -7 8 9 -2
right_child=1 2 4 -5 5 6 -8 -9 -10 -11
leaf_value=-0.0048174340999685228 0.0055087750387125805 -0.013110429321282677 0.0092631983467274248 0.011531669887690207 -0.0135347103911706 0.01341452883290393 -0.00090690361462700058 -0.0071918140209856485 0.0095838220197368758 -0.0042997710117161636
leaf_weight=40 24 28 36 39 22 21 246 21 22 41
leaf_count=40 24 28 36 39 22 21 246 21 22 41
internal_value=0 0.000385395 -0.00077273 0.00316647 0.00029021 -0.000827532 0.000219501 0.000145704 0.00191683 -0.000678154
internal_weight=0 500 353 147 325 289 267 108 87 65
internal_count=540 500 353 147 325 289 267 108 87 65
is_linear=0
shrinkage=0.1


Tree=40
num_leaves=13
num_cat=0
split_feature=3 3 3 0 3 3 0 0 3 1 3 0
split_gain=0.108868 0.253012 0.171756 0.253642 0.759029 0.228368 0.532143 0.47075 0.163921 0.16156 0.128062 0.119737
threshold=0.043808411214953276 0.025700934579439255 0.019275700934579441 20.32018308368605 0.0040887850467289724 0.0029205607476635517 18.266571954218858 19.977231806466872 0.075934579439252345 4.5500000000000007 0.03446261682242991 18.305954041483705
decision_type=2 2 2 2 2 2 2 2 2 2 2 2
left_child=1 2 3 5 -5 6 -1 -7 11 -4 -3 -2
right_child=8 10 9 4 -6 7 -8 -9 -10 -11 -12 -13
leaf_value=-0.014147550729103387 0.011557373445894983 -0.011685203642722358 -0.00012874939013272525 0.0072087627190809984 -0.014849269667114967 0.0010568290609969861 0.0026370470941651102 0.016878317229981937 -0.0015755598815396813 0.012289644930173052 -0.0026275268655169656 0.0014893546789174989
leaf_weight=30 27 27 20 26 39 180 51 21 39 22 37 21
leaf_count=30 27 27 20 26 39 180 51 21 39 22 37 21
internal_value=0 -0.000622249 0.00033635 -0.000394689 -0.00602606 0.000903322 -0.00357947 0.00270982 0.00323999 0.00637612 -0.00644873 0.00715262
internal_weight=0 453 389 347 65 282 81 201 87 42 64 48
internal_count=540 453 389 347 65 282 81 201 87 42 64 48
is_linear=0
shrinkage=0.1


Tree=41
num_leaves=12
num_cat=0
split_feature=3 3 1 3 0 3 1 3 1 3 0
split_gain=0.0881832 0.20494 0.155957 0.139122 0.224129 0.172565 0.583403 0.400578 0.130864 0.10373 0.0784128
threshold=0.043808411214953276 0.025700934579439255 4.7500000000000009 0.019275700934579441 20.436964754477604 0.012850467289719628 4.7500000000000009 0.0099299065420560759 4.5500000000000007 0.03446261682242991 15.781574183077931
decision_type=2 2 2 2 2 2 2 2 2 2 2
left_child=1 3 10 4 5 7 -7 -1 -5 -3 -2
right_child=2 9 -4 8 -6 6 -8 -9 -10 -11 -12
leaf_value=-0.00025875137432414139 0.0011296272976323962 -0.010516682967405629 -0.0037516078185290099 -0.00011587374377995731 -0.010631672162562609 0.0047218216831485431 -0.015744084366955437 0.010694720581448519 0.011060680584474044 -0.0023647741037043368 0.0084307881709384299
leaf_weight=232 24 27 25 20 20 30 26 39 22 37 38
leaf_count=232 24 27 25 20 20 30 26 39 22 37 38
internal_value=0 -0.000560024 0.00291599 0.000302715 -0.00035522 0.00027331 -0.00478021 0.00131758 0.00573851 -0.00580386 0.00560453
internal_weight=0 453 87 389 347 327 56 271 42 64 62
internal_count=540 453 87 389 347 327 56 271 42 64 62
is_linear=0
shrinkage=0.1


Tree=42
num_leaves=14
num_cat=0
split_feature=0 3 3 0 3 0 3 3 0 0 0 3 0
split_gain=0.0892228 0.372477 0.540655 0.256223 0.212108 0.325991 0.375741 0.316398 0.387518 0.27311 0.245909 0.19336 0.0897357
threshold=20.3111061088171 0.0040887850467289724 0.0099299065420560759 20.097301495976044 0.015771028037383179 18.765007219080818 0.05023364485981309 0.014602803738317759 19.72629665438912 17.826387004949702 17.847634884533694 0.025700934579439255 15.781574183077931
decision_type=2 2 2 2 2 2 2 2 2 2 2 2 2
left_child=3 -2 -3 4 7 6 9 8 10 -6 -1 -7 -8
right_child=1 2 -4 -5 5 11 12 -9 -10 -11 -12 -13 -14
leaf_value=0.0039559333651725736 0.011937132477760315 -0.012011641933134309 0.0078210074055407725 -0.010003645638762802 -0.0077603388981272786 -0.016972081381827594 0.0025832470263475959 0.014102793000638486 0.014197932071983816 0.0032570161804970771 -0.0033334557741784075 -0.004278254012751859 0.011158168910501096
leaf_weight=77 30 27 28 27 60 20 23 20 20 36 116 30 26
leaf_count=77 30 27 28 27 60 20 23 20 20 36 116 30 26
internal_value=0 0.00297397 -0.00191502 -0.000555578 4.04453e-05 -0.00239297 7.99532e-06 0.002077 0.000947815 -0.00362883 -0.000425254 -0.00935578 0.00713321
internal_weight=0 85 55 455 428 195 145 233 213 96 193 50 49
internal_count=540 85 55 455 428 195 145 233 213 96 193 50 49
is_linear=0
shrinkage=0.1


Tree=43
num_leaves=12
num_cat=0
split_feature=0 0 0 0 3 3 0 0 3 0 0
split_gain=0.0926574 0.293975 0.209379 0.378643 0.275154 0.235095 0.324276 0.309287 0.183079 0.143966 0.0801192
threshold=17.270909318749563 15.25303375163927 17.913116246927483 18.123651516518013 0.01752336448598131 0.0017523364485981308 18.457992376421565 18.765007219080818 0.0040887850467289724 17.676798679288854 15.772914965544585
decision_type=2 2 2 2 2 2 2 2 2 2 2
left_child=1 -1 4 -4 8 -5 -7 -8 -2 -6 -3
right_child=2 10 3 5 9 6 7 -9 -10 -11 -12
leaf_value=0.0053617411777377132 0.0021353864343836904 -0.012663915952933686 -0.011859645228832962 0.0078801657590601183 -0.0049243183491532415 -0.012358998642726379 0.0096627902600073048 -0.00096149093755599807 0.013410930016673067 0.0054574979321015162 -0.0042853904180228716
leaf_weight=25 24 21 28 36 34 22 31 236 36 22 25
leaf_count=25 24 21 28 36 34 22 31 236 36 22 25
internal_value=0 -0.00336667 0.000509666 -0.000701551 0.00419552 0.000259762 -0.000689493 0.00027204 0.00890071 -0.000845748 -0.00811037
internal_weight=0 71 469 353 116 325 289 267 60 56 46
internal_count=540 71 469 353 116 325 289 267 60 56 46
is_linear=0
shrinkage=0.1


Tree=44
num_leaves=10
num_cat=0
split_feature=0 0 0 2 1 1 1 0 3
split_gain=0.0777462 0.262198 0.142885 0.138269 0.426371 0.500961 0.229163 0.321314 0.0620072
threshold=20.436964754477604 20.348183068532961 20.301843524290248 11.567307602211603 4.4500000000000011 4.5500000000000007 4.4500000000000011 19.380081826113514 0.011098130841121497
decision_type=2 2 2 2 2 2 2 2 2
left_child=1 2 3 6 8 -6 -1 -8 -5
right_child=-2 -3 -4 4 5 -7 7 -9 -10
leaf_value=0.0077982311137020591 -0.0054459845423698427 0.0087511736077859111 -0.0071399533800010021 -0.0040624432943084021 0.012306080970596127 0.00082734631687161712 -0.005811956820820096 0.0066682421714067469 -0.011659303684497163
leaf_weight=20 25 34 29 22 47 199 118 25 21
leaf_count=20 25 34 29 22 47 199 118 25 21
internal_value=0 0.000264368 -0.000335531 0.000101036 0.00141456 0.00302044 -0.00222785 -0.0036301 -0.00777254
internal_weight=0 515 481 452 289 246 163 143 43
internal_count=540 515 481 452 289 246 163 143 43
is_linear=0
shrinkage=0.1


Tree=45
num_leaves=12
num_cat=0
split_feature=3 3 3 3 3 0 3 0 0 0 0
split_gain=0.08343 0.176556 0.135001 0.112039 0.190987 0.593197 0.35488 0.17448 0.139548 0.108245 0.043051
threshold=0.043808411214953276 0.075934579439252345 0.028621495327102807 0.019275700934579441 0.012850467289719628 18.789460574290235 0.0099299065420560759 17.847634884533694 19.960777257386145 18.305954041483705 18.546067705058565
decision_type=2 2 2 2 2 2 2 2 2 2 2
left_child=2 9 3 4 6 -6 7 -1 -5 -2 -4
right_child=1 -3 10 8 5 -7 -8 -9 -10 -11 -12
leaf_value=0.0033944510585142244 0.011084972653124067 -0.0021613858664074003 -0.0077251150235233285 0.00030478207010994945 0.0029709976222930534 -0.017450453473255037 0.0093286750885920641 -0.0025423534497219539 0.010672743583009356 0.0015123229562526658 -0.0017742421652656049
leaf_weight=68 27 39 31 34 33 25 39 182 21 21 20
leaf_count=68 27 39 31 34 33 25 39 182 21 21 20
internal_value=0 0.00283631 -0.000544722 7.01604e-05 -0.000594483 -0.00583135 0.000456514 -0.000927543 0.00426346 0.00689694 -0.00539144
internal_weight=0 87 453 402 347 58 289 250 55 48 51
internal_count=540 87 453 402 347 58 289 250 55 48 51
is_linear=0
shrinkage=0.1


Tree=46
num_leaves=14
num_cat=0
split_feature=0 3 0 0 3 3 0 0 3 0 1 3 0
split_gain=0.0826371 0.308722 0.452206 0.208467 0.123072 0.288737 0.311078 0.281505 0.280787 0.214104 0.205399 0.161501 0.0784354
threshold=20.3111061088171 0.0040887850467289724 20.409913509014217 20.097301495976044 0.015771028037383179 0.014602803738317759 19.72629665438912 18.765007219080818 0.05023364485981309 17.826387004949702 4.6500000000000012 0.025700934579439255 15.781574183077931
decision_type=2 2 2 2 2 2 2 2 2 2 2 2 2
left_child=3 -2 -3 4 5 6 10 8 9 -6 -1 -9 -10
right_child=1 2 -4 -5 7 -7 -8 11 12 -11 -12 -13 -14
leaf_value=0.0022947912270573955 0.011022209251920384 0.0055373334654552102 -0.013126474015769505 -0.0090569144666746825 -0.0064214927237480875 0.013042328841984273 0.012347118351608516 -0.015281600467860699 0.0022860891145208609 0.0033333624299201701 -0.0042446041425379622 -0.0036805611216307928 0.010302933606390771
leaf_weight=103 30 34 21 27 60 20 20 20 23 36 90 30 26
leaf_count=103 30 34 21 27 60 20 20 20 23 36 90 30 26
internal_value=0 0.00286211 -0.00158885 -0.000534681 2.93699e-06 0.00155424 0.000475547 -0.00185067 0.000380468 -0.00276342 -0.000754668 -0.00832098 0.00653992
internal_weight=0 85 55 455 428 233 213 195 145 96 193 50 49
internal_count=540 85 55 455 428 233 213 195 145 96 193 50 49
is_linear=0
shrinkage=0.1


Tree=47
num_leaves=12
num_cat=0
split_feature=3 0 0 3 0 0 0 0 1 0 0
split_gain=0.0736108 0.443756 0.550023 0.32819 0.291578 0.232248 0.283093 0.518212 0.243143 0.219007 0.162128
threshold=0.0029205607476635517 18.266571954218858 20.277222589939029 0.0040887850467289724 20.409913509014217 20.342028245227784 19.46559023574325 19.309414660514815 4.7500000000000009 19.700047279128999 19.334710234845037
decision_type=2 2 2 2 2 2 2 2 2 2 2
left_child=1 -1 10 9 5 6 7 -5 -8 -2 -3
right_child=3 2 -4 4 -6 -7 8 -9 -10 -11 -12
leaf_value=-0.012610558873663347 0.001877678761428053 0.015130613949149847 -0.010589917935431004 -0.00013420611934914905 -0.011813826788039435 0.010030624440506749 -0.00013883824925869706 0.015543561347800753 -0.01123522788954851 0.016154862124295462 0.0030510864555835723
leaf_weight=30 22 20 23 253 21 23 40 23 39 21 25
leaf_count=30 22 20 23 253 21 23 40 23 39 21 25
internal_value=0 -0.00247955 0.00199002 0.000549763 -0.000344776 0.000292393 -0.000338534 0.00117227 -0.0056168 0.00885026 0.00841977
internal_weight=0 98 68 442 399 378 355 276 79 43 45
internal_count=540 98 68 442 399 378 355 276 79 43 45
is_linear=0
shrinkage=0.1


Tree=48
num_leaves=10
num_cat=0
split_feature=0 3 3 0 0 0 2 1 3
split_gain=0.0776699 0.247934 0.463304 0.165848 0.158764 0.301742 0.168481 0.639625 0.306605
threshold=20.3111061088171 0.0040887850467289724 0.0099299065420560759 20.270386817164454 19.951639073572267 19.700047279128999 11.567307602211603 4.4500000000000011 0.0052570093457943931
decision_type=2 2 2 2 2 2 2 2 2
left_child=3 -2 -3 4 5 6 8 -8 -1
right_child=1 2 -4 -5 -6 -7 7 -9 -10
leaf_value=-0.012576015199534597 0.010087488082547983 -0.010560492991849229 0.0077986936883202617 -0.0086089832863459996 0.0086326373554766172 -0.01091776670386585 -0.011858587413832236 0.0037374900376857065 -0.00037570393357712491
leaf_weight=25 30 27 28 24 20 26 30 213 117
leaf_count=25 30 27 28 24 20 26 30 213 117
internal_value=0 0.00277476 -0.001214 -0.000518362 -6.78403e-05 -0.000491221 0.000212909 0.00181205 -0.00252365
internal_weight=0 85 55 455 431 411 385 243 142
internal_count=540 85 55 455 431 411 385 243 142
is_linear=0
shrinkage=0.1


Tree=49
num_leaves=15
num_cat=0
split_feature=0 0 0 0 0 0 3 1 0 1 3 2 0 1
split_gain=0.0674833 0.119498 0.632724 0.367462 0.236523 0.274539 0.17643 0.397594 0.430026 0.235876 0.272801 0.1703 0.131987 0.0290716
threshold=15.719023886802512 17.996582439493537 17.81504338122981 18.266571954218858 17.531185132955908 17.375242169787459 0.0040887850467289724 4.5500000000000007 19.72629665438912 4.6500000000000012 0.014602803738317759 11.58862388580256 17.05675762546834 4.6500000000000012
decision_type=2 2 2 2 2 2 2 2 2 2 2 2 2 2
left_child=-1 2 4 -3 5 12 7 -5 -9 11 -11 -8 -2 -6
right_child=1 3 -4 6 13 -7 9 8 -10 10 -12 -13 -14 -15
leaf_value=-0.0041217769848535188 0.0047558259322411488 -0.011724430602043867 0.018741380190476775 -0.0052960281609557569 -0.0088569651224783483 0.010947583204713361 -0.00036647542966184799 -0.0025884294315524723 0.01449524419064202 -0.0089261105967064699 4.2793163074514811e-05 0.0092438690098268651 -0.00424838215453414 -0.003529729842266534
leaf_weight=37 27 28 21 32 21 29 54 23 41 60 78 28 41 20
leaf_count=37 27 28 21 32 21 29 54 23 41 60 78 28 41 20
internal_value=0 0.000303192 0.00257032 -0.000744697 0.000109512 0.00280107 0.00022819 0.00380519 0.0083558 -0.00133268 -0.00385673 0.00291511 -0.000673182 -0.00625831
internal_weight=0 503 159 344 138 97 316 96 64 220 138 82 68 41
internal_count=540 503 159 344 138 97 316 96 64 220 138 82 68 41
is_linear=0
shrinkage=0.1


Tree=50
num_leaves=12
num_cat=0
split_feature=0 0 3 3 1 1 0 3 3 0 0
split_gain=0.0757812 0.241753 0.0925299 0.131068 0.0825372 0.290716 0.187328 0.164799 0.400701 0.342406 0.102527
threshold=15.25303375163927 15.772914965544585 0.043808411214953276 0.075934579439252345 4.7500000000000009 4.6500000000000012 19.688288013564485 0.014602803738317759 0.0040887850467289724 19.427463105263627 17.913116246927483
decision_type=2 2 2 2 2 2 2 2 2 2 2
left_child=-1 -2 4 -4 5 6 -3 8 -6 -9 -7
right_child=1 2 3 -5 7 10 -8 9 -10 -11 -12
leaf_value=0.0053767224103212358 -0.010769393986889295 0.0026266876308323993 0.0074382924009114507 -0.0021261103208298267 0.0063659448176622392 -0.0018398361338768155 -0.004691375674282545 0.015980644895517756 -0.006386398738582752 -0.00078602376683004982 -0.0087042994424700731
leaf_weight=25 21 146 38 23 44 36 46 21 56 29 55
leaf_count=25 21 146 38 23 44 36 46 21 56 29 55
internal_value=0 -0.000261006 0.000185707 0.00383204 -0.00032798 -0.00133314 0.000873402 0.00156841 -0.000775368 0.00625598 -0.00598869
internal_weight=0 515 494 61 433 283 192 150 100 50 91
internal_count=540 515 494 61 433 283 192 150 100 50 91
is_linear=0
shrinkage=0.1


Tree=51
num_leaves=11
num_cat=0
split_feature=0 0 0 3 0 3 3 0 3 3
split_gain=0.0720822 0.219411 0.133811 0.12857 0.249151 0.227758 0.190306 0.238533 0.121714 0.102884
threshold=20.436964754477604 20.3111061088171 20.097301495976044 0.015771028037383179 18.765007219080818 0.05023364485981309 0.014602803738317759 19.72629665438912 0.0064252336448598138 0.025700934579439255
decision_type=2 2 2 2 2 2 2 2 2 2
left_child=1 2 3 6 5 -5 7 -1 -3 -6
right_child=-2 8 -4 4 9 -7 -8 -9 -10 -11
leaf_value=-0.00043167951070447814 -0.0052438554950058466 0.0023875311444941406 -0.0073227750206435174 -0.0026912983024279433 -0.013601600285619499 0.0056875985628944276 0.010847898721694947 0.011041144542396068 0.011651142945756084 -0.0043422022725765905
leaf_weight=193 25 37 27 96 20 49 20 20 23 30
leaf_count=193 25 37 27 96 20 49 20 20 23 30
internal_value=0 0.000254556 -0.000494986 -6.42609e-05 -0.00195882 0.000140191 0.00152132 0.000645581 0.00593858 -0.00804596
internal_weight=0 515 455 428 195 145 233 213 60 50
internal_count=540 515 455 428 195 145 233 213 60 50
is_linear=0
shrinkage=0.1


Tree=52
num_leaves=12
num_cat=0
split_feature=3 0 0 3 0 0 0 0 0 0 0
split_gain=0.0676374 0.313734 0.536828 0.245594 0.189522 0.227501 0.182594 0.417993 0.235904 0.161649 0.150739
threshold=0.0029205607476635517 18.266571954218858 20.277222589939029 0.0040887850467289724 20.409913509014217 20.342028245227784 19.46559023574325 19.309414660514815 19.968829758299808 19.334710234845037 19.700047279128999
decision_type=2 2 2 2 2 2 2 2 2 2 2
left_child=1 -1 9 10 5 6 7 -5 -8 -3 -2
right_child=3 2 -4 4 -6 -7 8 -9 -10 -11 -12
leaf_value=-0.010895280018448831 0.001922755730761723 0.014434410780668259 -0.01104678433874379 -0.00031760519346509409 -0.0094933886258375087 0.0099050491400386985 -0.009105660695027799 0.013762793357929458 0.0020259397366316988 0.0023727501034736635 0.013767513739211219
leaf_weight=30 22 20 23 253 21 23 47 23 32 25 21
leaf_count=30 22 20 23 253 21 23 47 23 32 25 21
internal_value=0 -0.00237681 0.00138134 0.000526985 -0.000246844 0.000266853 -0.000357594 0.000855761 -0.00459666 0.00773349 0.0077074
internal_weight=0 98 68 442 399 378 355 276 79 45 43
internal_count=540 98 68 442 399 378 355 276 79 45 43
is_linear=0
shrinkage=0.1


Tree=53
num_leaves=14
num_cat=0
split_feature=0 0 0 0 3 1 2 0 3 0 3 0 3
split_gain=0.0622235 0.201477 0.170564 0.301086 0.244745 0.323098 0.198452 0.379509 0.590053 0.189968 0.139122 0.260511 0.0408609
threshold=17.270909318749563 15.25303375163927 17.913116246927483 18.123651516518013 0.0064252336448598138 4.6500000000000012 11.58862388580256 19.02478910866196 0.0099299065420560759 17.498137715021794 0.0017523364485981308 19.168113388442038 0.023364485981308414
decision_type=2 2 2 2 2 2 2 2 2 2 2 2 2
left_child=1 -1 4 -4 9 -6 10 -8 -9 -2 -5 -12 -3
right_child=2 12 3 6 5 -7 7 8 -10 -11 11 -13 -14
leaf_value=0.0044669904671609407 0.0027877926826477052 -0.010084212383953855 -0.010625481204728462 0.0060394644089367087 -0.0059757917785109617 0.00725898020135771 0.015591181069612504 -0.0073125303443521269 0.011614865916115899 0.016253805888647384 -0.0081451758983786451 -9.9627424880296365e-05 -0.0040720425689449681
leaf_weight=25 20 20 28 23 39 35 22 40 28 22 54 158 26
leaf_count=25 20 20 28 23 39 35 22 40 28 22 54 158 26
internal_value=0 -0.00275891 0.00041766 -0.000675539 0.00374438 0.000283898 0.000181686 0.00417468 0.000481103 0.00984142 -0.00134754 -0.00214897 -0.00668603
internal_weight=0 71 469 353 116 74 325 90 68 42 235 212 46
internal_count=540 71 469 353 116 74 325 90 68 42 235 212 46
is_linear=0
shrinkage=0.1


Tree=54
num_leaves=14
num_cat=0
split_feature=0 0 0 0 2 0 3 0 1 0 3 0 0
split_gain=0.0628581 0.0960104 0.24388 0.226134 0.160746 0.307403 0.477943 0.146119 0.143703 0.87563 0.188912 0.1234 0.1305
threshold=15.719023886802512 17.913116246927483 18.123651516518013 17.664016788042925 11.58862388580256 19.02478910866196 0.0099299065420560759 17.498137715021794 4.9500000000000011 20.31664537226618 0.014602803738317759 17.375242169787459 17.05675762546834
decision_type=2 2 2 2 2 2 2 2 2 2 2 2 2
left_child=-1 3 -3 7 8 -6 -7 11 10 -10 -4 12 -2
right_child=1 2 4 -5 5 6 -8 -9 9 -11 -12 -13 -14
leaf_value=-0.0039780199987109041 0.0051553159326970304 -0.0095629333019522696 -0.0026636466494222221 0.0089624188091525312 0.014032062447883867 -0.0065812772139906888 0.010453378914722375 -0.0074005554031048503 -0.020280737294392153 0.0086299649206921462 0.0036990756669989496 0.0083731176331639286 -0.0037980284798810847
leaf_weight=37 27 28 114 39 22 40 28 21 22 20 79 22 41
leaf_count=37 27 28 114 39 22 40 28 21 22 20 79 22 41
internal_value=0 0.000292618 -0.000607986 0.00241204 0.000163518 0.00375721 0.000432993 0.000110552 -0.00121279 -0.00651374 -5.92163e-05 0.00186314 -0.000243024
internal_weight=0 503 353 150 325 90 68 111 235 42 193 90 68
internal_count=540 503 353 150 325 90 68 111 235 42 193 90 68
is_linear=0
shrinkage=0.1


Tree=55
num_leaves=8
num_cat=0
split_feature=0 0 0 0 3 0 1
split_gain=0.0529891 0.181624 0.172659 0.209635 0.265291 0.217969 0.222546
threshold=20.436964754477604 20.39634373401373 20.32018308368605 19.960777257386145 0.0075934579439252336 19.750761063714368 4.8500000000000005
decision_type=2 2 2 2 2 2 2
left_child=1 2 3 5 -5 6 -1
right_child=-2 -3 -4 4 -6 -7 -8
leaf_value=-0.0004757966765255796 -0.0044960398077964784 0.0091081155125390407 -0.0076641395928916242 -0.0010345434459547202 0.01368463145196438 -0.010367839588295846 0.010104407015300933
leaf_weight=373 25 22 29 24 25 21 21
leaf_count=373 25 22 29 24 25 21 21
internal_value=0 0.000218254 -0.000178453 0.000289402 0.00647524 -0.000440974 8.81228e-05
internal_weight=0 515 493 464 49 415 394
internal_count=540 515 493 464 49 415 394
is_linear=0
shrinkage=0.1


Tree=56
num_leaves=10
num_cat=0
split_feature=0 0 0 0 0 0 2 3 1
split_gain=0.0522758 0.175479 0.129245 0.169673 0.594875 0.257614 0.155269 0.0363571 0.019251
threshold=15.25303375163927 17.270909318749563 17.531185132955908 17.81504338122981 17.996582439493537 18.457992376421565 11.567307602211603 0.023364485981308414 4.6500000000000012
decision_type=2 2 2 2 2 2 2 2 2
left_child=-1 7 6 8 -5 -6 -3 -2 -4
right_child=1 2 3 4 5 -7 -8 -9 -10
leaf_value=0.0044656731784343722 -0.0093163096962962291 -0.0015451008696109056 -0.0085068044491067897 0.016731939779683239 -0.0077505324816394775 0.00044310971500817687 0.0086022019925478255 -0.003645148777510398 -0.0041717615677043796
leaf_weight=25 20 25 21 21 44 300 38 26 20
leaf_count=25 20 25 21 21 44 300 38 26 20
internal_value=0 -0.00021678 0.000361318 -0.000292606 0.000392549 -0.000604914 0.00457549 -0.00611087 -0.00639215
internal_weight=0 515 469 406 365 344 63 46 41
internal_count=540 515 469 406 365 344 63 46 41
is_linear=0
shrinkage=0.1


Tree=57
num_leaves=11
num_cat=0
split_feature=0 0 3 3 0 3 0 0 0 3
split_gain=0.0530597 0.0788106 0.214724 0.284372 0.197649 0.143525 0.267806 0.232746 0.140984 0.0445921
threshold=15.719023886802512 17.913116246927483 0.0029205607476635517 0.0064252336448598138 18.123651516518013 0.0017523364485981308 18.457992376421565 18.663695269246109 17.531185132955908 0.025700934579439255
decision_type=2 2 2 2 2 2 2 2 2 2
left_child=-1 2 -2 -4 -3 -6 -7 -8 9 -5
right_child=1 4 3 8 5 6 7 -9 -10 -11
leaf_value=-0.0036548422898065197 -0.0074570401152595882 -0.0086087297224107066 0.011088094857798235 0.0069986353638038668 0.0061015806264347501 -0.011199139278720726 0.010384712944782916 -0.00058309099888909381 -0.004405943205689683 0.0014021514530759306
leaf_weight=37 20 28 37 24 36 22 21 246 34 35
leaf_count=37 20 28 37 24 36 22 21 246 34 35
internal_value=0 0.000268845 0.00218906 0.00367308 -0.000547111 0.000147429 -0.000594265 0.000279545 0.000723016 0.00367869
internal_weight=0 503 150 130 353 325 289 267 93 59
internal_count=540 503 150 130 353 325 289 267 93 59
is_linear=0
shrinkage=0.1


Tree=58
num_leaves=11
num_cat=0
split_feature=0 0 3 0 3 3 0 0 0 3
split_gain=0.0503947 0.152039 0.103432 0.16131 0.0915767 0.126451 0.214311 0.146374 0.125965 0.034183
threshold=15.25303375163927 17.270909318749563 0.043808411214953276 18.957312015014708 0.025700934579439255 0.019275700934579441 20.32018308368605 19.629780922130511 18.41430297214227 0.023364485981308414
decision_type=2 2 2 2 2 2 2 2 2 2
left_child=-1 9 4 -4 5 6 -3 -7 -6 -2
right_child=1 2 3 -5 8 7 -8 -9 -10 -11
leaf_value=0.0043845898956060411 -0.0088072795889456764 0.001059654065725473 0.0098172771856533721 -0.0020317643880844115 0.00041999446875706781 -0.00032198783941566949 -0.0053651063803296824 0.011776506262831391 -0.0088545754038797768 -0.0033082994169000395
leaf_weight=25 20 258 27 20 32 20 65 20 27 26
leaf_count=25 20 258 27 20 32 20 65 20 27 26
internal_value=0 -0.000212844 0.000325259 0.00477513 -0.000170342 0.000423552 -0.000233254 0.00572726 -0.0038243 -0.00569916
internal_weight=0 515 469 47 422 363 323 40 59 46
internal_count=540 515 469 47 422 363 323 40 59 46
is_linear=0
shrinkage=0.1


Tree=59
num_leaves=12
num_cat=0
split_feature=0 0 3 0 1 1 3 3 0 1 0
split_gain=0.0655474 0.187564 0.17978 0.125847 0.199247 0.375543 1.07314 0.734601 0.327795 0.186881 0.122778
threshold=20.3111061088171 20.409913509014217 0.0040887850467289724 19.962633542291577 4.4500000000000011 4.5500000000000007 0.0052570093457943931 0.019275700934579441 18.613287686762735 4.8500000000000005 18.007629361245861
decision_type=2 2 2 2 2 2 2 2 2 2 2
left_child=3 -2 -3 4 8 6 -6 -8 -1 10 -7
right_child=1 2 -4 -5 5 9 7 -9 -10 -11 -12
leaf_value=0.0027332582846283913 0.0073021265191657997 0.0042238456620411436 -0.0087116778606460207 -0.006149962753988803 0.026324017966787024 0.00066648344890646316 -0.014537475125065872 0.012241446060943418 -0.012892075807883822 0.0071821086773914957 -0.0035608268220632673
leaf_weight=25 42 22 21 36 21 141 21 20 29 28 134
leaf_count=25 42 22 21 36 21 141 21 20 29 28 134
internal_value=0 0.00254904 -0.0020935 -0.000476195 1.12888e-05 0.000850051 0.00794107 -0.00147459 -0.00565812 -0.000600916 -0.00139337
internal_weight=0 85 43 455 419 365 62 41 54 303 275
internal_count=540 85 43 455 419 365 62 41 54 303 275
is_linear=0
shrinkage=0.1


Tree=60
num_leaves=12
num_cat=0
split_feature=0 3 3 0 1 1 3 3 0 0 3
split_gain=0.0530934 0.164106 0.280122 0.101936 0.16139 0.304189 0.869246 0.595027 0.265514 0.158221 0.227541
threshold=20.3111061088171 0.0040887850467289724 0.0064252336448598138 19.962633542291577 4.4500000000000011 4.5500000000000007 0.0052570093457943931 0.019275700934579441 18.613287686762735 19.640399289565625 0.0017523364485981308
decision_type=2 2 2 2 2 2 2 2 2 2 2
left_child=3 -2 -3 4 8 6 -6 -8 -1 10 -7
right_child=1 2 -4 -5 5 9 7 -9 -10 -11 -12
leaf_value=0.0024599324986338614 0.0082435352106889088 -0.010031740872987679 0.0046577144455274234 -0.0055349665797419026 0.023691616411365215 -0.010816533312849376 -0.013083727801928208 0.011017301524989307 -0.011602868679268607 0.0063525493411968163 -0.00042266414989717313
leaf_weight=25 30 21 34 36 21 23 21 20 29 30 250
leaf_count=25 30 21 34 36 21 23 21 20 29 30 250
internal_value=0 0.00229414 -0.000950987 -0.000428575 1.01599e-05 0.000765046 0.00714696 -0.00132713 -0.00509231 -0.000540824 -0.00129834
internal_weight=0 85 55 455 419 365 62 41 54 303 273
internal_count=540 85 55 455 419 365 62 41 54 303 273
is_linear=0
shrinkage=0.1


Tree=61
num_leaves=10
num_cat=0
split_feature=1 3 3 0 0 1 0 2 0
split_gain=0.0695176 0.0948933 0.174951 0.127006 0.370194 0.256519 0.237363 0.314896 0.0480068
threshold=4.3500000000000005 0.075934579439252345 0.043808411214953276 18.546067705058565 17.996582439493537 4.7500000000000009 18.765007219080818 11.567307602211603 18.38712949853829
decision_type=2 2 2 2 2 2 2 2 2
left_child=-1 2 3 4 5 -2 -5 -8 -4
right_child=1 -3 8 6 -6 -7 7 -9 -10
leaf_value=0.0045975722823171847 -0.0021192909498712938 -0.0050870459085624467 0.0087993688881397251 0.01038564422633499 -0.011468419060111047 0.0094329685096770696 0.0059822029298952509 -0.002397996977971936 0.0022826569573953749
leaf_weight=31 117 38 26 24 37 23 62 162 20
leaf_count=31 117 38 26 24 37 23 62 162 20
internal_value=0 -0.000280009 0.00010782 -0.000526244 -0.00257249 -0.00022142 0.00093418 -7.84774e-05 0.00596602
internal_weight=0 509 471 425 177 140 248 224 46
internal_count=540 509 471 425 177 140 248 224 46
is_linear=0
shrinkage=0.1


Tree=62
num_leaves=11
num_cat=0
split_feature=1 1 0 0 0 0 3 0 3 3
split_gain=0.0563093 0.0856475 0.0916765 0.209106 0.167371 0.290438 0.169935 0.157265 0.113621 0.00947911
threshold=4.3500000000000005 4.4500000000000011 17.270909318749563 15.25303375163927 17.913116246927483 18.061014926406298 0.0040887850467289724 17.649806026235535 0.01752336448598131 0.028621495327102807
decision_type=2 2 2 2 2 2 2 2 2 2
left_child=-1 -2 3 -3 7 -6 -7 8 -4 -5
right_child=1 2 4 9 5 6 -8 -9 -10 -11
leaf_value=0.0041378148861469762 -0.0047551444994333465 0.0038745542615652088 0.0048682941576919042 -0.0092871229234151552 -0.012167060894425959 0.0040992202753403102 -0.0013034442606835795 0.0091474602491451572 -0.0034131514649682992 -0.0062451802726302833
leaf_weight=31 39 25 37 20 20 83 195 39 30 21
leaf_count=31 39 25 37 20 20 83 195 39 30 21
internal_value=0 -0.000252008 0.000121656 -0.00333375 0.000686153 -0.000527777 0.000309581 0.0040989 0.00116018 -0.00772905
internal_weight=0 509 470 66 404 298 278 106 67 41
internal_count=540 509 470 66 404 298 278 106 67 41
is_linear=0
shrinkage=0.1


Tree=63
num_leaves=12
num_cat=0
split_feature=3 0 0 3 0 0 0 0 0 1 0
split_gain=0.0642468 0.219913 0.412258 0.187142 0.161798 0.1275 0.212547 0.155132 0.369406 0.228823 0.0894973
threshold=0.0029205607476635517 20.277222589939029 18.266571954218858 0.0040887850467289724 19.700047279128999 20.409913509014217 20.342028245227784 19.46559023574325 19.309414660514815 4.7500000000000009 19.334710234845037
decision_type=2 2 2 2 2 2 2 2 2 2 2
left_child=1 2 -1 4 -2 6 7 8 -5 -9 -4
right_child=3 -3 10 5 -6 -7 -8 9 -10 -11 -12
leaf_value=-0.008773474792639414 0.00078848750245842083 -0.010870664388589238 0.011346358805894852 -0.00032879380500514666 0.013060055673122406 -0.0077460120032940595 0.0095755065609093599 0.0010627778386697174 0.012907987500986326 -0.0097019009313020765 0.0023715280294418339
leaf_weight=30 22 23 20 253 21 21 23 40 23 39 25
leaf_count=30 22 23 20 253 21 21 23 40 23 39 25
internal_value=0 -0.00231647 0.000306815 0.000513607 0.00678158 -0.000161889 0.000259451 -0.000344124 0.000774271 -0.00425143 0.00636034
internal_weight=0 98 75 442 43 399 378 355 276 79 45
internal_count=540 98 75 442 43 399 378 355 276 79 45
is_linear=0
shrinkage=0.1


Tree=64
num_leaves=12
num_cat=0
split_feature=3 0 0 3 0 0 0 0 0 3 0
split_gain=0.0520399 0.178129 0.333929 0.151585 0.131057 0.103275 0.172163 0.125657 0.299219 0.191552 0.0724928
threshold=0.0029205607476635517 20.277222589939029 18.266571954218858 0.0040887850467289724 19.700047279128999 20.409913509014217 20.342028245227784 19.46559023574325 19.309414660514815 0.011098130841121497 19.334710234845037
decision_type=2 2 2 2 2 2 2 2 2 2 2
left_child=1 2 -1 4 -2 6 7 8 -5 -9 -4
right_child=3 -3 10 5 -6 -7 -8 9 -10 -11 -12
leaf_value=-0.0078961273189634088 0.000709638177332553 -0.0097835984566937324 0.010211721900850535 -0.00029591435223510457 0.011754049892936436 -0.0069714098725290529 0.0086179559685937747 0.0028193399542942644 0.01161718866787851 -0.0074748671882986732 0.0021343752443790435
leaf_weight=30 22 23 20 253 21 21 23 28 23 51 25
leaf_count=30 22 23 20 253 21 21 23 28 23 51 25
internal_value=0 -0.00208482 0.000276133 0.000462246 0.00610342 -0.0001457 0.000233506 -0.000309712 0.000696844 -0.00382629 0.00572431
internal_weight=0 98 75 442 43 399 378 355 276 79 45
internal_count=540 98 75 442 43 399 378 355 276 79 45
is_linear=0
shrinkage=0.1


Tree=65
num_leaves=11
num_cat=0
split_feature=0 3 3 3 0 0 0 0 1 3
split_gain=0.0539493 0.134163 0.28576 0.0977982 0.399437 0.416715 0.243301 0.365315 0.0861301 0.145495
threshold=20.3111061088171 0.0040887850467289724 0.0064252336448598138 0.0029205607476635517 19.161383744653264 18.061014926406298 19.968829758299808 19.750761063714368 4.4500000000000011 0.028621495327102807
decision_type=2 2 2 2 2 2 2 2 2 2
left_child=3 -2 -3 4 5 -1 7 8 -5 -10
right_child=1 2 -4 6 -6 -7 -8 -9 9 -11
leaf_value=-0.0068169629878618507 0.007691879918177923 -0.0097933051531158763 0.0050432413843843867 -0.0043764366608645237 -0.0115870814876897 0.012876979172939347 0.009203659889421293 -0.013606826374307275 0.0027056942692891299 -0.0018264697643560397
leaf_weight=22 30 21 34 35 35 21 28 20 175 119
leaf_count=22 30 21 34 35 35 21 28 20 175 119
internal_value=0 0.00231256 -0.000621622 -0.000432016 -0.00365519 0.00280101 0.000234847 -0.000484714 0.000312983 0.000871247
internal_weight=0 85 55 455 78 43 377 349 329 294
internal_count=540 85 55 455 78 43 377 349 329 294
is_linear=0
shrinkage=0.1


Tree=66
num_leaves=11
num_cat=0
split_feature=0 3 3 3 3 0 3 0 2 0
split_gain=0.0454388 0.0819135 0.0982123 0.0685287 0.100841 0.189452 0.230911 0.162764 0.132295 0.0863844
threshold=15.719023886802512 0.043808411214953276 0.075934579439252345 0.028621495327102807 0.019275700934579441 20.32018308368605 0.0040887850467289724 19.960777257386145 11.567307602211603 18.305954041483705
decision_type=2 2 2 2 2 2 2 2 2 2
left_child=-1 3 -3 4 5 8 -7 -6 -2 -5
right_child=1 2 -4 9 7 6 -8 -9 -10 -11
leaf_value=-0.0033822047700350351 -0.0025883698608681915 0.0068055875721926761 -0.0014736834103646487 0.00027633846551179886 -9.4180239145370088e-05 0.0020110870210024025 -0.010155256143890512 0.011103073498677641 0.0021773715504126525 -0.008215552351801941
leaf_weight=37 84 38 23 25 34 26 39 21 190 23
leaf_count=37 84 38 23 25 34 26 39 21 190 23
internal_value=0 0.00024879 0.0036839 -0.000225285 0.000209323 -0.000435071 -0.00528872 0.00418113 0.000716341 -0.00379269
internal_weight=0 503 61 442 394 339 65 55 274 48
internal_count=540 503 61 442 394 339 65 55 274 48
is_linear=0
shrinkage=0.1


Tree=67
num_leaves=10
num_cat=0
split_feature=0 0 0 0 0 1 3 3 3
split_gain=0.0586865 0.13945 0.124163 0.158519 0.176446 0.0925754 0.34803 0.147642 0.0710099
threshold=20.3111061088171 20.409913509014217 20.270386817164454 19.951639073572267 19.700047279128999 4.5500000000000007 0.0052570093457943931 0.0052570093457943931 0.0040887850467289724
decision_type=2 2 2 2 2 2 2 2 2
left_child=2 -2 3 4 5 6 -1 -7 -3
right_child=1 8 -4 -5 -6 7 -8 -9 -10
leaf_value=0.010560485306713316 0.0065103028313301149 0.0023792102255604484 -0.0074509940731028726 0.0086330052395351235 -0.0084569442444122761 -0.0052499460224367557 -0.0015388409913118398 0.00031567237876866169 -0.0057504536938809215
leaf_weight=36 42 22 24 20 26 61 70 218 21
leaf_count=36 42 22 24 20 26 61 70 218 21
internal_value=0 0.00241195 -0.000450584 -6.07702e-05 -0.000483825 5.46194e-05 0.00257036 -0.000901183 -0.00159109
internal_weight=0 85 455 431 411 385 106 279 43
internal_count=540 85 455 431 411 385 106 279 43
is_linear=0
shrinkage=0.1


Tree=68
num_leaves=12
num_cat=0
split_feature=0 0 0 1 2 1 1 0 0 0 0
split_gain=0.0475361 0.119351 0.103612 0.135663 0.292097 0.440081 0.494911 0.241227 0.220608 0.40213 0.0789332
threshold=20.3111061088171 20.436964754477604 19.962633542291577 4.4500000000000011 11.567307602211603 4.8500000000000005 4.5500000000000007 18.613287686762735 19.168113388442038 18.457992376421565 20.39634373401373
decision_type=2 2 2 2 2 2 2 2 2 2 2
left_child=2 10 3 7 8 6 -6 -1 9 -5 -2
right_child=1 -3 -4 4 5 -7 -8 -9 -10 -11 -12
leaf_value=0.0025572102963924408 0.0018297656353465038 -0.0036343293488025671 -0.0055537098915212687 -0.0021004393872084792 0.010890743887813931 0.016336588756265966 -0.0010455217225138437 -0.010846983050477916 0.0049093011766672134 -0.017842881903052329 0.0093564257195050075
leaf_weight=25 38 25 36 86 44 22 165 29 28 20 22
leaf_count=25 38 25 36 86 44 22 165 29 28 20 22
internal_value=0 0.00217076 -0.000405526 3.68004e-05 0.000728909 0.00288349 0.00146738 -0.00464134 -0.00298534 -0.00507071 0.00458954
internal_weight=0 85 455 419 365 231 209 54 134 106 60
internal_count=540 85 455 419 365 231 209 54 134 106 60
is_linear=0
shrinkage=0.1


Tree=69
num_leaves=12
num_cat=0
split_feature=1 1 0 1 2 0 0 0 0 2 0
split_gain=0.0491383 0.0609421 0.0661507 0.34058 0.152058 0.347531 0.188993 0.15009 0.64246 0.29991 0.121428
threshold=4.3500000000000005 4.4500000000000011 20.32018308368605 4.9500000000000011 11.567307602211603 19.415595556546315 18.074857602195337 19.02478910866196 18.546067705058565 11.58862388580256 20.39634373401373
decision_type=2 2 2 2 2 2 2 2 2 2 2
left_child=-1 -2 4 10 5 6 -3 8 -6 -9 -4
right_child=1 2 3 -5 7 -7 -8 9 -10 -11 -12
leaf_value=0.0038653722753928554 -0.0040339545179636054 -0.0015425054134982751 -0.013652545036748051 0.0069006410854247704 0.00088727527185994436 0.0087163756745867443 -0.010073791896483225 -0.0057607922640662383 0.017087843203917149 0.0059380905495749585 -0.0032883264034843217
leaf_weight=31 39 82 20 24 133 25 38 56 30 36 26
leaf_count=31 39 82 20 24 133 25 38 56 30 36 26
internal_value=0 -0.000235416 7.97822e-05 -0.00275617 0.000576074 -0.00200952 -0.00424408 0.00204631 0.00386897 -0.00118297 -0.00779451
internal_weight=0 509 470 70 400 145 120 255 163 92 46
internal_count=540 509 470 70 400 145 120 255 163 92 46
is_linear=0
shrinkage=0.1


Tree=70
num_leaves=15
num_cat=0
split_feature=0 0 0 3 0 0 3 0 3 0 0 3 0 3
split_gain=0.0480253 0.133426 0.0930859 0.0819471 0.206863 0.1809 0.198092 0.161245 0.141943 0.21148 0.161204 0.0813249 0.0715014 0.0594162
threshold=20.3111061088171 20.409913509014217 20.097301495976044 0.015771028037383179 19.72629665438912 18.765007219080818 0.05023364485981309 17.826387004949702 0.0075934579439252336 17.868575479900212 18.58863960147119 0.025700934579439255 15.781574183077931 0.0040887850467289724
decision_type=2 2 2 2 2 2 2 2 2 2 2 2 2 2
left_child=2 -2 3 4 8 6 7 -5 9 -1 -10 -7 -8 -3
right_child=1 13 -4 5 -6 11 12 -9 10 -11 -12 -13 -14 -15
leaf_value=0.0027458965270356697 0.006190748237783001 0.0018980282274159519 -0.0061023767485662746 -0.0055875440935293837 0.010445206277919087 -0.011687092456268148 0.0013397345238405727 0.0028779324144124988 -0.0013273796773162383 -0.0048797938116124755 0.0087545916278447423 -0.0034547919097046055 0.0089940222813031431 -0.0055384202372460141
leaf_weight=66 42 22 27 60 22 20 23 36 29 81 35 30 26 21
leaf_count=66 42 22 27 60 22 20 23 36 29 81 35 30 26 21
internal_value=0 0.0021819 -0.000407607 -4.83577e-05 0.0012175 -0.00156089 0.000227665 -0.00241299 0.000255368 -0.00145601 0.0041862 -0.00674771 0.00540119 -0.00173373
internal_weight=0 85 455 428 233 195 145 96 211 147 64 50 49 43
internal_count=540 85 455 428 233 195 145 96 211 147 64 50 49 43
is_linear=0
shrinkage=0.1


Tree=71
num_leaves=12
num_cat=0
split_feature=0 0 3 0 3 3 2 0 2 0 3
split_gain=0.0449169 0.100686 0.082361 0.105841 0.0563395 0.270262 0.266485 0.162114 0.142047 0.0298385 0.02149
threshold=15.25303375163927 17.270909318749563 0.043808411214953276 18.957312015014708 0.012850467289719628 0.0099299065420560759 11.58862388580256 17.847634884533694 11.567307602211603 18.546067705058565 0.023364485981308414
decision_type=2 2 2 2 2 2 2 2 2 2 2
left_child=-1 10 4 -4 5 7 8 -3 -6 -8 -2
right_child=1 2 3 -5 6 -7 9 -9 -10 -11 -12
leaf_value=0.0041394424736499787 -0.0071299999579787256 0.0047015298279407232 0.0082920286908995857 -0.0013059385586529971 -0.004926681960932911 0.0086115576326847073 -0.011400625463575126 -0.0019429726382860773 0.0029027410140164043 -0.0060035820518221173 -0.0027699126467968412
leaf_weight=25 20 46 27 20 32 37 20 182 84 21 26
leaf_count=25 20 46 27 20 32 37 20 182 84 21 26
internal_value=0 -0.000200944 0.000236955 0.00420779 -0.000205295 0.000684064 -0.00170644 -0.000602415 0.0007429 -0.00863629 -0.0046656
internal_weight=0 515 469 47 422 265 157 228 116 41 46
internal_count=540 515 469 47 422 265 157 228 116 41 46
is_linear=0
shrinkage=0.1


Tree=72
num_leaves=16
num_cat=0
split_feature=3 0 3 3 0 3 0 0 0 1 0 0 0 3 0
split_gain=0.043611 0.517401 0.280525 0.196925 0.210478 0.195778 0.141478 0.240943 0.23719 0.112897 0.570689 0.204723 0.155158 0.0896796 0.0407854
threshold=0.014602803738317759 19.968829758299808 0.011098130841121497 0.015771028037383179 18.765007219080818 0.0099299065420560759 17.81504338122981 17.531185132955908 18.284881624242413 4.7500000000000009 20.097301495976044 20.31664537226618 19.482261493478855 0.0052570093457943931 19.415595556546315
decision_type=2 2 2 2 2 2 2 2 2 2 2 2 2 2 2
left_child=2 3 5 -2 6 9 7 -5 -8 10 12 13 -1 -11 -6
right_child=1 -3 -4 4 14 -7 8 -9 -10 11 -12 -13 -14 -15 -16
leaf_value=-0.0011184226174693588 0.008730466682463885 0.013528763477144571 -0.010947228819131852 0.00085012935598691305 -0.010934606492519379 0.008745633251965047 0.012958417013287545 -0.010661549301585183 -0.0015268248792451164 -0.0060338641839245196 -0.014710732350746792 0.0078407263584636365 0.0074787073983595929 0.0026411334222013303 -0.0049765535664779174
leaf_weight=109 20 29 25 75 20 24 20 24 26 26 30 37 26 22 27
leaf_count=109 20 29 25 75 20 24 20 24 26 26 30 37 26 22 27
internal_value=0 0.00100099 -0.000806815 -0.000712719 -0.00169638 0.000118405 0.000188644 -0.00194058 0.00477111 -0.000709809 -0.00223505 0.00225096 0.000537321 -0.00205782 -0.0075119
internal_weight=0 241 299 212 192 274 145 99 46 250 165 85 135 48 47
internal_count=540 241 299 212 192 274 145 99 46 250 165 85 135 48 47
is_linear=0
shrinkage=0.1


Tree=73
num_leaves=13
num_cat=0
split_feature=3 3 1 0 0 3 0 0 3 0 3 0
split_gain=0.0421606 0.217927 0.0754918 0.202934 0.220101 0.211784 0.0978503 0.393344 0.286623 0.534495 0.231614 0.13698
threshold=0.075934579439252345 0.05023364485981309 4.7500000000000009 17.934163883793847 20.39634373401373 0.012850467289719628 18.838213500043839 18.613287686762735 0.0099299065420560759 20.097301495976044 0.01752336448598131 19.640399289565625
decision_type=2 2 2 2 2 2 2 2 2 2 2 2
left_child=1 2 6 -4 5 -5 7 10 9 -8 -1 -10
right_child=-2 -3 3 4 -6 -7 8 -9 11 -11 -12 -13
leaf_value=0.0022475421159845041 -0.0031669637236075524 0.0097544852320266811 0.010042151106366267 0.001966302951249028 0.0073069271660642704 -0.0071374791079854717 0.0039923303491539433 -0.01579609913751483 0.0021898011789368145 -0.013239659139265617 -0.0051524309019247696 0.012523786010949509
leaf_weight=97 39 23 24 56 32 47 45 20 29 30 75 23
leaf_count=97 39 23 24 56 32 47 45 20 29 30 75 23
internal_value=0 0.00024653 -0.000210966 0.00156909 6.27638e-05 -0.00218785 -0.0010982 -0.00252262 0.00105525 -0.00290047 -0.00097919 0.0067606
internal_weight=0 501 478 159 135 103 319 192 127 75 172 52
internal_count=540 501 478 159 135 103 319 192 127 75 172 52
is_linear=0
shrinkage=0.1


Tree=74
num_leaves=8
num_cat=0
split_feature=0 0 0 0 3 0 0
split_gain=0.0466903 0.145148 0.146573 0.191512 0.171296 0.153136 0.0637958
threshold=20.436964754477604 20.39634373401373 20.32018308368605 19.960777257386145 0.0075934579439252336 19.700047279128999 19.380081826113514
decision_type=2 2 2 2 2 2 2
left_child=1 2 3 5 -5 6 -1
right_child=-2 -3 -4 4 -6 -7 -8
leaf_value=-0.00041719455461489125 -0.0042203674018383031 0.0081520702340640138 -0.0070468169267706828 0.00015924113492170973 0.011986812338232995 -0.0072983091572920477 0.003207338788023774
leaf_weight=328 25 22 29 24 25 30 57
leaf_count=328 25 22 29 24 25 30 57
internal_value=0 0.000204872 -0.00014977 0.000281296 0.00619372 -0.000416797 0.000119425
internal_weight=0 515 493 464 49 415 385
internal_count=540 515 493 464 49 415 385
is_linear=0
shrinkage=0.1


Tree=75
num_leaves=16
num_cat=0
split_feature=3 0 3 0 3 2 0 0 3 1 3 3 2 0 0
split_gain=0.0399349 0.343218 0.221708 0.181974 0.142143 0.0705107 0.535105 0.424734 0.214823 0.0613069 0.517093 0.33705 0.166243 0.0303412 0.0251418
threshold=0.014602803738317759 19.968829758299808 0.011098130841121497 19.46559023574325 0.0099299065420560759 11.567307602211603 19.672753265620972 20.301843524290248 0.0064252336448598138 4.7500000000000009 0.05023364485981309 0.05023364485981309 11.58862388580256 17.664016788042925 20.416220149679923
decision_type=2 2 2 2 2 2 2 2 2 2 2 2 2 2 2
left_child=2 3 4 9 5 6 13 8 -7 11 -11 12 -2 -1 -9
right_child=1 -3 -4 -5 -6 7 -8 14 -10 10 -12 -13 -14 -15 -16
leaf_value=-0.0084795687720179563 -0.00090246238782034293 0.011161286531594294 -0.0097869521975517283 -0.0082741022969667743 0.0074015525402501229 0.0031376451310466662 0.011623826570576057 -0.0071397843675433913 -0.0077124162915755403 0.013123712133025179 -0.0082638727594166999 0.0079565036472760975 -0.01002176090626529 -0.0029712879168801009 -0.011693889437312331
leaf_weight=20 77 29 25 26 24 107 32 22 22 26 20 36 27 20 27
leaf_count=20 77 29 25 26 24 107 32 22 22 26 20 36 27 20 27
internal_value=0 0.00095787 -0.000772062 -0.00043788 5.04642e-05 -0.00065524 0.00198535 -0.00172334 0.00128725 0.000657506 0.00382476 -0.000383164 -0.00326997 -0.00572543 -0.00964919
internal_weight=0 241 299 212 274 250 72 178 129 186 46 140 104 40 49
internal_count=540 241 299 212 274 250 72 178 129 186 46 140 104 40 49
is_linear=0
shrinkage=0.1


Tree=76
num_leaves=13
num_cat=0
split_feature=0 0 0 1 0 2 1 1 0 0 0 3
split_gain=0.0398514 0.132 0.104655 0.111022 0.251113 0.215936 0.378888 0.413776 0.13158 0.234623 0.093644 0.0338613
threshold=20.3111061088171 20.416220149679923 19.962633542291577 4.4500000000000011 18.613287686762735 11.567307602211603 4.8500000000000005 4.5500000000000007 19.168113388442038 18.457992376421565 20.342395660067282 0.0040887850467289724
decision_type=2 2 2 2 2 2 2 2 2 2 2 2
left_child=2 10 3 4 -1 8 7 -7 9 -5 -2 -3
right_child=1 11 -4 5 -6 6 -8 -9 -10 -11 -12 -13
leaf_value=0.0031858009696006774 0.0013834018989101701 0.00070976519158908304 -0.0055453434793485542 -0.0018358910434641117 -0.010490302330461042 0.0098542851739859393 0.015034655422310939 -0.0010598098162110106 0.0036028271274907253 -0.013860584013164043 0.010619590697543962 -0.0050395889254286888
leaf_weight=25 23 21 36 86 29 44 22 165 28 20 21 20
leaf_count=25 23 21 36 86 29 44 22 165 28 20 21 20
internal_value=0 0.00198756 -0.000371303 7.32445e-05 -0.00415877 0.000699351 0.00255187 0.00123789 -0.00249417 -0.0041047 0.00579158 -0.0020948
internal_weight=0 85 455 419 54 365 231 209 134 106 44 41
internal_count=540 85 455 419 54 365 231 209 134 106 44 41
is_linear=0
shrinkage=0.1


Tree=77
num_leaves=12
num_cat=0
split_feature=0 0 3 0 3 3 2 2 0 0 3
split_gain=0.0355227 0.0798303 0.0603274 0.0834291 0.0400624 0.173358 0.173255 0.145307 0.117573 0.0242417 0.0109859
threshold=15.25303375163927 17.270909318749563 0.043808411214953276 18.957312015014708 0.012850467289719628 0.0099299065420560759 11.58862388580256 11.567307602211603 19.962633542291577 18.546067705058565 0.023364485981308414
decision_type=2 2 2 2 2 2 2 2 2 2 2
left_child=-1 10 4 -4 5 7 8 -3 -6 -8 -2
right_child=1 2 3 -5 6 -7 9 -9 -10 -11 -12
leaf_value=0.0036812011599540711 -0.0059161844383925207 0.0038249463016577696 0.0072357729215312893 -0.0012856230791658163 0.0021250567308837369 0.0069318320274957129 -0.0095124379917979254 -0.0019392835229811584 -0.0058600000065305961 -0.0046478205937005223 -0.0027987598298260803
leaf_weight=25 20 59 27 20 93 37 20 169 23 21 26
leaf_count=25 20 59 27 20 93 37 20 169 23 21 26
internal_value=0 -0.000178699 0.000211218 0.00360965 -0.00016728 0.000582682 -0.00143314 -0.000447663 0.000541813 -0.0070208 -0.00415416
internal_weight=0 515 469 47 422 265 157 228 116 41 46
internal_count=540 515 469 47 422 265 157 228 116 41 46
is_linear=0
shrinkage=0.1


Tree=78
num_leaves=12
num_cat=0
